<?xml version="1.0"?>
<MethodSetup Method="BDT::BDTG">
  <GeneralInfo>
    <Info name="TMVA Release" value="4.2.0 [262656]"/>
    <Info name="ROOT Release" value="5.34/28 [336412]"/>
    <Info name="Creator" value="muhammad"/>
    <Info name="Date" value="Mon Mar 14 21:26:22 2016"/>
    <Info name="Host" value="Linux gul 3.16.0-30-generic #40~14.04.1-Ubuntu SMP Thu Jan 15 17:43:14 UTC 2015 x86_64 x86_64 x86_64 GNU/Linux"/>
    <Info name="Dir" value="/home/muhammad/Desktop/test_for_TMVA/TMVA-v4.2.0/test"/>
    <Info name="Training events" value="16982"/>
    <Info name="TrainingTime" value="5.44671922e+01"/>
    <Info name="AnalysisType" value="Classification"/>
  </GeneralInfo>
  <Options>
    <Option name="V" modified="Yes">False</Option>
    <Option name="VerbosityLevel" modified="No">Default</Option>
    <Option name="VarTransform" modified="No">None</Option>
    <Option name="H" modified="Yes">False</Option>
    <Option name="CreateMVAPdfs" modified="Yes">True</Option>
    <Option name="IgnoreNegWeightsInTraining" modified="No">False</Option>
    <Option name="NTrees" modified="Yes">1000</Option>
    <Option name="MaxDepth" modified="Yes">2</Option>
    <Option name="MinNodeSize" modified="Yes">2.5%</Option>
    <Option name="nCuts" modified="Yes">20</Option>
    <Option name="BoostType" modified="Yes">Grad</Option>
    <Option name="AdaBoostR2Loss" modified="No">quadratic</Option>
    <Option name="UseBaggedBoost" modified="Yes">True</Option>
    <Option name="Shrinkage" modified="Yes">1.000000e-01</Option>
    <Option name="AdaBoostBeta" modified="No">5.000000e-01</Option>
    <Option name="UseRandomisedTrees" modified="No">False</Option>
    <Option name="UseNvars" modified="No">5</Option>
    <Option name="UsePoissonNvars" modified="No">True</Option>
    <Option name="BaggedSampleFraction" modified="Yes">5.000000e-01</Option>
    <Option name="UseYesNoLeaf" modified="No">True</Option>
    <Option name="NegWeightTreatment" modified="Yes">ignorenegweightsintraining</Option>
    <Option name="Css" modified="No">1.000000e+00</Option>
    <Option name="Cts_sb" modified="No">1.000000e+00</Option>
    <Option name="Ctb_ss" modified="No">1.000000e+00</Option>
    <Option name="Cbb" modified="No">1.000000e+00</Option>
    <Option name="NodePurityLimit" modified="No">5.000000e-01</Option>
    <Option name="SeparationType" modified="No">giniindex</Option>
    <Option name="DoBoostMonitor" modified="No">False</Option>
    <Option name="UseFisherCuts" modified="No">False</Option>
    <Option name="MinLinCorrForFisher" modified="No">8.000000e-01</Option>
    <Option name="UseExclusiveVars" modified="No">False</Option>
    <Option name="DoPreselection" modified="No">False</Option>
    <Option name="SigToBkgFraction" modified="No">1.000000e+00</Option>
    <Option name="PruneMethod" modified="No">nopruning</Option>
    <Option name="PruneStrength" modified="No">0.000000e+00</Option>
    <Option name="PruningValFraction" modified="No">5.000000e-01</Option>
    <Option name="nEventsMin" modified="No">0</Option>
    <Option name="UseBaggedGrad" modified="No">False</Option>
    <Option name="GradBaggingFraction" modified="No">5.000000e-01</Option>
    <Option name="UseNTrainEvents" modified="No">0</Option>
    <Option name="NNodesMax" modified="No">0</Option>
  </Options>
  <Variables NVar="26">
    <Variable VarIndex="0" Expression="e_met" Label="e_met" Title="e_met" Unit="" Internal="e_met" Type="F" Min="1.57282993e-01" Max="2.78179443e+02"/>
    <Variable VarIndex="1" Expression="px_met" Label="px_met" Title="px_met" Unit="" Internal="px_met" Type="F" Min="-2.27453918e+02" Max="1.95477676e+02"/>
    <Variable VarIndex="2" Expression="py_met" Label="py_met" Title="py_met" Unit="" Internal="py_met" Type="F" Min="-2.07942703e+02" Max="2.10090149e+02"/>
    <Variable VarIndex="3" Expression="dphi_nu_j" Label="dphi_nu_j" Title="dphi_nu_j" Unit="" Internal="dphi_nu_j" Type="F" Min="-3.14112329e+00" Max="3.14138675e+00"/>
    <Variable VarIndex="4" Expression="dphi_nu_bj" Label="dphi_nu_bj" Title="dphi_nu_bj" Unit="" Internal="dphi_nu_bj" Type="F" Min="-3.14158416e+00" Max="3.14109731e+00"/>
    <Variable VarIndex="5" Expression="dphi_j_bj" Label="dphi_j_bj" Title="dphi_j_bj" Unit="" Internal="dphi_j_bj" Type="F" Min="-3.14109087e+00" Max="3.14112449e+00"/>
    <Variable VarIndex="6" Expression="muon_pt" Label="muon_pt" Title="muon_pt" Unit="" Internal="muon_pt" Type="F" Min="3.00148087e+01" Max="2.23413361e+02"/>
    <Variable VarIndex="7" Expression="muon_eta" Label="muon_eta" Title="muon_eta" Unit="" Internal="muon_eta" Type="F" Min="-2.09828424e+00" Max="2.09998846e+00"/>
    <Variable VarIndex="8" Expression="dphi_j_l" Label="dphi_j_l" Title="dphi_j_l" Unit="" Internal="dphi_j_l" Type="F" Min="-3.14099073e+00" Max="3.14030337e+00"/>
    <Variable VarIndex="9" Expression="n_ofjets" Label="n_ofjets" Title="n_ofjets" Unit="" Internal="n_ofjets" Type="F" Min="4.00000000e+00" Max="1.10000000e+01"/>
    <Variable VarIndex="10" Expression="n_ofbjets" Label="n_ofbjets" Title="n_ofbjets" Unit="" Internal="n_ofbjets" Type="F" Min="2.00000000e+00" Max="4.00000000e+00"/>
    <Variable VarIndex="11" Expression="n_ofljets" Label="n_ofljets" Title="n_ofljets" Unit="" Internal="n_ofljets" Type="F" Min="2.00000000e+00" Max="8.00000000e+00"/>
    <Variable VarIndex="12" Expression="jet1_pt" Label="jet1_pt" Title="jet1 pt" Unit="GeV/c" Internal="jet1_pt" Type="F" Min="3.54469185e+01" Max="4.11978638e+02"/>
    <Variable VarIndex="13" Expression="bjet1_pt" Label="bjet1_pt" Title="bjet1 pt" Unit="GeV/c" Internal="bjet1_pt" Type="F" Min="3.02007275e+01" Max="4.11978638e+02"/>
    <Variable VarIndex="14" Expression="ht" Label="ht" Title="jets pt" Unit="GeV/c" Internal="ht" Type="F" Min="1.27441521e+02" Max="7.64459595e+02"/>
    <Variable VarIndex="15" Expression="jets_e" Label="jets_e" Title="jets energy" Unit="GeV" Internal="jets_e" Type="F" Min="1.63157715e+02" Max="2.05923511e+03"/>
    <Variable VarIndex="16" Expression="jets_m" Label="jets_m" Title="jets mass" Unit="GeV" Internal="jets_m" Type="F" Min="1.79090843e+01" Max="1.27056892e+02"/>
    <Variable VarIndex="17" Expression="jets_l_pt" Label="jets_l_pt" Title="jets_l_pt" Unit="" Internal="jets_l_pt" Type="F" Min="1.27441521e+02" Max="7.64459595e+02"/>
    <Variable VarIndex="18" Expression="hadW_pt" Label="hadW_pt" Title="had W pt" Unit="GeV/c" Internal="hadW_pt" Type="F" Min="1.97333217e-01" Max="1.85185242e+02"/>
    <Variable VarIndex="19" Expression="lepW_pt" Label="lepW_pt" Title="lep W pt" Unit="GeV/c" Internal="lepW_pt" Type="F" Min="4.86846179e-01" Max="4.12686829e+02"/>
    <Variable VarIndex="20" Expression="top_m" Label="top_m" Title="top mass" Unit="GeV" Internal="top_m" Type="F" Min="4.82786484e+01" Max="3.93451721e+02"/>
    <Variable VarIndex="21" Expression="top_pt" Label="top_pt" Title="top pt" Unit="GeV/c" Internal="top_pt" Type="F" Min="1.15270722e+00" Max="4.37316101e+02"/>
    <Variable VarIndex="22" Expression="atop_m" Label="atop_m" Title="atop mass" Unit="GeV" Internal="atop_m" Type="F" Min="4.83242416e+01" Max="4.17308868e+02"/>
    <Variable VarIndex="23" Expression="atop_pt" Label="atop_pt" Title="atop pt" Unit="(GeV/c)" Internal="atop_pt" Type="F" Min="1.16980004e+00" Max="5.02332611e+02"/>
    <Variable VarIndex="24" Expression="higgs_pt" Label="higgs_pt" Title="higgs_pt" Unit="GeV/c" Internal="higgs_pt" Type="F" Min="3.53162050e-01" Max="5.23660889e+02"/>
    <Variable VarIndex="25" Expression="higgs_m" Label="higgs_m" Title="higgs_m" Unit="GeV" Internal="higgs_m" Type="F" Min="2.80512421e+02" Max="5.80329773e+02"/>
  </Variables>
  <Spectators NSpec="0"/>
  <Classes NClass="2">
    <Class Name="Signal" Index="0"/>
    <Class Name="Background" Index="1"/>
  </Classes>
  <Transformations NTransformations="0"/>
  <MVAPdfs>
    <PDF Name="BDTG_PDFSig" MinNSmooth="0" MaxNSmooth="0" InterpolMethod="2" KDE_type="1" KDE_iter="1" KDE_border="1" KDE_finefactor="1.0000000000000000e+00">
      <Histogram Name="BDT_tr_S_original" NBins="339" XMin="-9.9147969484329224e-01" XMax="9.1565442085266113e-01" HasEquidistantBins="1">
        0.00000000e+00 0.00000000e+00 0.00000000e+00 0.00000000e+00 -5.77122155e-01 0.00000000e+00 0.00000000e+00 -5.77122155e-01 0.00000000e+00 -1.15424431e+00 0.00000000e+00 0.00000000e+00 0.00000000e+00 -1.15424431e+00 -5.77122155e-01 0.00000000e+00 0.00000000e+00 0.00000000e+00 0.00000000e+00 0.00000000e+00 -1.73136646e+00 0.00000000e+00 -5.77122155e-01 -5.77122155e-01 -5.77122155e-01 0.00000000e+00 -1.15424431e+00 5.77122155e-01 -5.77122155e-01 -2.30848862e+00 -1.73136646e+00 -1.73136646e+00 -1.15424431e+00 0.00000000e+00 -1.15424431e+00 -1.73136646e+00 5.77122155e-01 -1.15424431e+00 -1.15424431e+00 -1.15424431e+00 -2.30848862e+00 -1.73136646e+00 -1.15424431e+00 0.00000000e+00 -1.15424431e+00 -4.03985508e+00 -1.73136646e+00 0.00000000e+00 -2.30848862e+00 -1.73136646e+00 0.00000000e+00 -1.15424431e+00 -4.03985508e+00 -1.73136646e+00 -1.15424431e+00 5.77122155e-01 0.00000000e+00 0.00000000e+00 0.00000000e+00 -1.73136646e+00 -1.73136646e+00 0.00000000e+00 -5.77122155e-01 0.00000000e+00 -1.15424431e+00 -5.77122155e-01 -1.15424431e+00 -1.15424431e+00 -5.77122155e-01 -1.73136646e+00 -2.88561077e+00 -2.88561077e+00 -4.03985508e+00 -2.30848862e+00 -2.30848862e+00 -1.15424431e+00 -2.30848862e+00 0.00000000e+00 0.00000000e+00 0.00000000e+00 -5.77122155e-01 -2.88561077e+00 -5.77122155e-01 5.77122155e-01 -2.88561077e+00 -3.46273293e+00 -1.15424431e+00 5.77122155e-01 -4.61697724e+00 -5.77122155e-01 0.00000000e+00 -2.30848862e+00 0.00000000e+00 -4.03985508e+00 -1.73136646e+00 -1.73136646e+00 -1.15424431e+00 -1.15424431e+00 -2.88561077e+00 -2.30848862e+00 5.77122155e-01 -1.73136646e+00 -1.15424431e+00 -5.77122155e-01 0.00000000e+00 2.30848862e+00 -2.30848862e+00 5.77122155e-01 -5.77122155e-01 2.88561077e+00 1.73136646e+00 -1.15424431e+00 -5.77122155e-01 5.77122155e-01 -3.46273293e+00 -1.73136646e+00 -5.77122155e-01 -1.15424431e+00 5.77122155e-01 -2.88561077e+00 5.77122155e-01 -5.77122155e-01 -1.73136646e+00 -2.88561077e+00 0.00000000e+00 -1.15424431e+00 5.77122155e-01 -1.15424431e+00 -2.05901229e-16 0.00000000e+00 2.05901229e-16 -1.15424431e+00 1.15424431e+00 -2.30848862e+00 -5.77122155e-01 2.30848862e+00 1.73136646e+00 -1.15424431e+00 -3.46273293e+00 5.77122155e-01 -1.73136646e+00 2.30848862e+00 -3.46273293e+00 2.05901229e-16 2.30848862e+00 0.00000000e+00 5.77122155e-01 0.00000000e+00 2.88561077e+00 -1.15424431e+00 1.73136646e+00 1.15424431e+00 5.77122155e-01 5.77122155e-01 0.00000000e+00 5.77122155e-01 -2.30848862e+00 -2.05901229e-16 2.30848862e+00 0.00000000e+00 5.19409939e+00 1.15424431e+00 -2.05901229e-16 -5.77122155e-01 0.00000000e+00 4.03985508e+00 2.88561077e+00 1.15424431e+00 -6.34834370e+00 1.73136646e+00 -4.03985508e+00 -2.30848862e+00 1.73136646e+00 -1.73136646e+00 1.15424431e+00 2.88561077e+00 -5.77122155e-01 2.88561077e+00 5.77122155e-01 2.88561077e+00 5.77122155e-01 1.73136646e+00 -5.77122155e-01 -5.77122155e-01 -2.88561077e+00 3.46273293e+00 -2.88561077e+00 2.30848862e+00 1.15424431e+00 2.05901229e-16 1.73136646e+00 5.77122155e-01 1.15424431e+00 1.15424431e+00 4.03985508e+00 5.77122155e+00 -1.15424431e+00 -5.77122155e-01 4.61697724e+00 5.77122155e-01 -1.15424431e+00 2.05901229e-16 5.77122155e-01 -5.77122155e-01 -2.05901229e-16 1.15424431e+00 -4.03985508e+00 2.30848862e+00 -2.05901229e-16 -5.77122155e-01 5.77122155e-01 -2.30848862e+00 -5.77122155e-01 2.88561077e+00 2.88561077e+00 2.88561077e+00 1.15424431e+00 2.88561077e+00 3.46273293e+00 4.61697724e+00 3.46273293e+00 -1.15424431e+00 1.15424431e+00 4.03985508e+00 1.15424431e+00 3.46273293e+00 7.50258801e+00 -1.73136646e+00 1.15424431e+00 2.88561077e+00 1.73136646e+00 -1.73136646e+00 2.88561077e+00 4.61697724e+00 5.77122155e-01 2.30848862e+00 1.15424431e+00 2.05901229e-16 2.30848862e+00 4.03985508e+00 1.15424431e+00 2.30848862e+00 2.30848862e+00 1.73136646e+00 5.19409939e+00 2.88561077e+00 4.03985508e+00 2.88561077e+00 4.03985508e+00 2.30848862e+00 4.61697724e+00 4.03985508e+00 4.03985508e+00 -5.77122155e-01 5.19409939e+00 1.15424431e+00 1.15424431e+00 5.77122155e-01 5.19409939e+00 6.92546586e+00 5.19409939e+00 2.88561077e+00 2.05901229e-16 2.30848862e+00 2.30848862e+00 7.50258801e+00 5.19409939e+00 4.61697724e+00 2.30848862e+00 6.92546586e+00 1.73136646e+00 2.30848862e+00 1.15424431e+00 2.88561077e+00 1.73136646e+00 2.30848862e+00 3.46273293e+00 4.03985508e+00 7.50258801e+00 4.03985508e+00 5.19409939e+00 1.73136646e+00 0.00000000e+00 4.03985508e+00 -2.88561077e+00 3.46273293e+00 2.30848862e+00 1.15424431e+00 -1.15424431e+00 5.77122155e+00 1.73136646e+00 4.03985508e+00 1.15424431e+00 2.88561077e+00 2.88561077e+00 2.05901229e-16 3.46273293e+00 2.30848862e+00 1.73136646e+00 2.30848862e+00 5.77122155e-01 5.77122155e-01 5.19409939e+00 3.46273293e+00 1.15424431e+00 1.15424431e+00 5.77122155e-01 2.30848862e+00 5.77122155e-01 1.15424431e+00 1.73136646e+00 1.73136646e+00 2.88561077e+00 -1.15424431e+00 2.88561077e+00 -1.15424431e+00 1.73136646e+00 5.77122155e-01 0.00000000e+00 1.15424431e+00 2.30848862e+00 -1.73136646e+00 -5.77122155e-01 0.00000000e+00 0.00000000e+00 5.77122155e-01 1.73136646e+00 5.77122155e-01 -5.77122155e-01 5.77122155e-01 -5.77122155e-01 1.15424431e+00 1.15424431e+00 1.73136646e+00 0.00000000e+00 0.00000000e+00 0.00000000e+00 0.00000000e+00 -5.77122155e-01 
      </Histogram>
    </PDF>
    <PDF Name="BDTG_PDFBkg" MinNSmooth="0" MaxNSmooth="0" InterpolMethod="2" KDE_type="1" KDE_iter="1" KDE_border="1" KDE_finefactor="1.0000000000000000e+00">
      <Histogram Name="BDT_tr_B_original" NBins="339" XMin="-9.9147969484329224e-01" XMax="9.1565442085266113e-01" HasEquidistantBins="1">
        1.27834321e-02 1.27834321e-02 7.67005928e-02 1.53401186e-01 1.40617753e-01 1.78968050e-01 1.66184618e-01 1.53401186e-01 2.81235507e-01 2.30101778e-01 2.94018939e-01 3.19585803e-01 2.42885210e-01 3.45152667e-01 4.21853260e-01 3.32369235e-01 3.70719532e-01 4.34636692e-01 3.57936100e-01 3.83502964e-01 4.72986989e-01 5.24120717e-01 4.47420124e-01 5.49687581e-01 4.47420124e-01 4.98553853e-01 5.62471014e-01 5.36904149e-01 4.34636692e-01 6.64738471e-01 5.88037878e-01 4.98553853e-01 6.39171606e-01 8.30923088e-01 6.64738471e-01 5.88037878e-01 5.62471014e-01 7.03088767e-01 5.75254446e-01 7.03088767e-01 6.51955038e-01 6.64738471e-01 8.18139656e-01 6.90305335e-01 6.64738471e-01 7.92572792e-01 8.05356224e-01 6.77521903e-01 7.67005928e-01 7.28655631e-01 6.51955038e-01 7.15872199e-01 7.79789360e-01 7.28655631e-01 6.64738471e-01 8.18139656e-01 8.30923088e-01 8.18139656e-01 7.54222496e-01 9.45973977e-01 7.41439063e-01 7.03088767e-01 7.54222496e-01 8.05356224e-01 8.05356224e-01 6.64738471e-01 7.28655631e-01 9.07623681e-01 8.18139656e-01 8.05356224e-01 7.41439063e-01 9.07623681e-01 8.56489953e-01 8.56489953e-01 8.82056817e-01 8.82056817e-01 7.67005928e-01 7.79789360e-01 9.20407113e-01 7.67005928e-01 1.04824143e+00 8.82056817e-01 9.45973977e-01 8.43706520e-01 9.45973977e-01 7.41439063e-01 8.30923088e-01 6.64738471e-01 9.07623681e-01 8.05356224e-01 9.97107706e-01 9.71540842e-01 8.18139656e-01 7.28655631e-01 7.79789360e-01 8.30923088e-01 9.20407113e-01 9.71540842e-01 7.79789360e-01 8.69273385e-01 9.45973977e-01 8.30923088e-01 8.94840249e-01 1.16329232e+00 8.82056817e-01 8.82056817e-01 7.79789360e-01 9.20407113e-01 8.18139656e-01 9.97107706e-01 9.33190545e-01 8.69273385e-01 7.41439063e-01 9.20407113e-01 7.03088767e-01 7.54222496e-01 8.05356224e-01 1.08659173e+00 1.00989114e+00 9.33190545e-01 8.56489953e-01 8.69273385e-01 7.67005928e-01 7.92572792e-01 7.92572792e-01 1.03545800e+00 9.07623681e-01 7.79789360e-01 9.45973977e-01 7.92572792e-01 8.30923088e-01 8.69273385e-01 9.20407113e-01 9.84324274e-01 8.43706520e-01 9.58757410e-01 8.82056817e-01 7.79789360e-01 7.92572792e-01 8.56489953e-01 8.82056817e-01 1.02267457e+00 9.07623681e-01 7.28655631e-01 7.15872199e-01 8.69273385e-01 7.28655631e-01 6.39171606e-01 9.58757410e-01 8.69273385e-01 6.26388174e-01 8.30923088e-01 7.41439063e-01 6.77521903e-01 6.64738471e-01 6.13604742e-01 7.79789360e-01 9.84324274e-01 9.71540842e-01 9.58757410e-01 9.97107706e-01 8.05356224e-01 9.33190545e-01 8.56489953e-01 6.64738471e-01 7.41439063e-01 7.41439063e-01 6.90305335e-01 8.05356224e-01 5.88037878e-01 5.36904149e-01 7.67005928e-01 8.18139656e-01 6.26388174e-01 7.03088767e-01 7.03088767e-01 8.18139656e-01 6.77521903e-01 6.77521903e-01 6.39171606e-01 8.43706520e-01 6.77521903e-01 7.67005928e-01 6.90305335e-01 6.90305335e-01 6.77521903e-01 6.64738471e-01 6.51955038e-01 6.00821310e-01 6.13604742e-01 5.24120717e-01 5.36904149e-01 6.90305335e-01 6.90305335e-01 6.13604742e-01 6.64738471e-01 5.49687581e-01 6.64738471e-01 4.98553853e-01 6.26388174e-01 7.03088767e-01 7.41439063e-01 6.51955038e-01 6.90305335e-01 4.85770421e-01 6.51955038e-01 6.13604742e-01 6.39171606e-01 4.98553853e-01 6.90305335e-01 5.24120717e-01 5.75254446e-01 4.47420124e-01 5.36904149e-01 5.36904149e-01 5.36904149e-01 5.24120717e-01 4.72986989e-01 4.60203557e-01 5.88037878e-01 4.72986989e-01 4.21853260e-01 5.24120717e-01 5.24120717e-01 5.24120717e-01 5.11337285e-01 4.21853260e-01 3.70719532e-01 4.98553853e-01 3.19585803e-01 5.36904149e-01 4.21853260e-01 3.45152667e-01 4.47420124e-01 4.72986989e-01 2.94018939e-01 4.21853260e-01 4.47420124e-01 4.34636692e-01 3.06802371e-01 3.19585803e-01 3.19585803e-01 4.34636692e-01 5.11337285e-01 3.32369235e-01 3.06802371e-01 3.83502964e-01 2.81235507e-01 2.55668643e-01 4.85770421e-01 3.06802371e-01 3.70719532e-01 2.55668643e-01 2.42885210e-01 2.30101778e-01 2.30101778e-01 2.30101778e-01 1.91751482e-01 1.53401186e-01 1.78968050e-01 3.06802371e-01 1.78968050e-01 2.42885210e-01 3.83502964e-01 2.30101778e-01 1.78968050e-01 2.55668643e-01 1.91751482e-01 2.42885210e-01 2.42885210e-01 2.42885210e-01 2.42885210e-01 2.17318346e-01 1.91751482e-01 1.66184618e-01 2.81235507e-01 1.91751482e-01 1.66184618e-01 1.78968050e-01 8.94840249e-02 1.66184618e-01 1.15050889e-01 7.67005928e-02 1.15050889e-01 2.04534914e-01 8.94840249e-02 1.27834321e-01 1.02267457e-01 1.15050889e-01 8.94840249e-02 7.67005928e-02 7.67005928e-02 8.94840249e-02 1.40617753e-01 1.27834321e-01 1.27834321e-01 8.94840249e-02 6.39171606e-02 7.67005928e-02 1.02267457e-01 8.94840249e-02 1.15050889e-01 1.15050889e-01 8.94840249e-02 3.83502964e-02 3.83502964e-02 5.11337285e-02 1.27834321e-02 3.83502964e-02 3.83502964e-02 2.55668643e-02 3.83502964e-02 3.83502964e-02 2.55668643e-02 1.27834321e-02 5.11337285e-02 1.27834321e-02 1.27834321e-02 1.27834321e-02 2.55668643e-02 2.55668643e-02 2.55668643e-02 1.27834321e-02 0.00000000e+00 2.55668643e-02 1.27834321e-02 2.55668643e-02 1.27834321e-02 0.00000000e+00 1.27834321e-02 0.00000000e+00 1.27834321e-02 0.00000000e+00 1.27834321e-02 0.00000000e+00 0.00000000e+00 0.00000000e+00 0.00000000e+00 1.27834321e-02 
      </Histogram>
    </PDF>
  </MVAPdfs>
  <Weights NTrees="1000" AnalysisType="1">
    <BinaryTree type="DecisionTree" boostWeight="1.0000000000000000e+00" itree="0">
      <Node pos="s" depth="0" NCoef="0" IVar="16" Cut="3.5620075225830078e+01" cType="1" res="-6.7144571803510189e-03" rms="4.9995490908622742e-01" purity="4.9328553676605225e-01" nType="0">
        <Node pos="l" depth="1" NCoef="0" IVar="16" Cut="3.1333395004272461e+01" cType="1" res="1.3771504163742065e-01" rms="4.8066055774688721e-01" purity="6.3771504163742065e-01" nType="0">
          <Node pos="l" depth="2" NCoef="0" IVar="-1" Cut="0.0000000000000000e+00" cType="1" res="1.2822692282497883e-02" rms="4.4718208909034729e-01" purity="7.2366982698440552e-01" nType="-99"/>
          <Node pos="r" depth="2" NCoef="0" IVar="-1" Cut="0.0000000000000000e+00" cType="1" res="3.6049641203135252e-03" rms="4.9747005105018616e-01" purity="5.5023485422134399e-01" nType="-99"/>
        </Node>
        <Node pos="r" depth="1" NCoef="0" IVar="25" Cut="4.6012515258789062e+02" cType="1" res="-1.1042129993438721e-01" rms="4.8765474557876587e-01" purity="3.8957870006561279e-01" nType="0">
          <Node pos="l" depth="2" NCoef="0" IVar="-1" Cut="0.0000000000000000e+00" cType="1" res="-2.4081108858808875e-04" rms="4.9999040365219116e-01" purity="4.9690410494804382e-01" nType="-99"/>
          <Node pos="r" depth="2" NCoef="0" IVar="-1" Cut="0.0000000000000000e+00" cType="1" res="-2.5635136291384697e-02" rms="4.4993305206298828e-01" purity="2.8191685676574707e-01" nType="-99"/>
        </Node>
      </Node>
    </BinaryTree>
    <BinaryTree type="DecisionTree" boostWeight="1.0000000000000000e+00" itree="1">
      <Node pos="s" depth="0" NCoef="0" IVar="25" Cut="4.9544873046875000e+02" cType="1" res="4.4865543022751808e-03" rms="4.9800807237625122e-01" purity="5.0233304500579834e-01" nType="0">
        <Node pos="l" depth="1" NCoef="0" IVar="16" Cut="3.1534337997436523e+01" cType="1" res="6.7693710327148438e-02" rms="4.9432265758514404e-01" purity="5.6789618730545044e-01" nType="0">
          <Node pos="l" depth="2" NCoef="0" IVar="-1" Cut="0.0000000000000000e+00" cType="1" res="1.2718945741653442e-02" rms="4.4428890943527222e-01" purity="7.2944492101669312e-01" nType="-99"/>
          <Node pos="r" depth="2" NCoef="0" IVar="-1" Cut="0.0000000000000000e+00" cType="1" res="7.3624687502160668e-04" rms="4.9947008490562439e-01" purity="5.0761300325393677e-01" nType="-99"/>
        </Node>
        <Node pos="r" depth="1" NCoef="0" IVar="16" Cut="3.7354663848876953e+01" cType="1" res="-1.9058795273303986e-01" rms="4.5707210898399353e-01" purity="2.9998740553855896e-01" nType="0">
          <Node pos="l" depth="2" NCoef="0" IVar="-1" Cut="0.0000000000000000e+00" cType="1" res="-5.5930758826434612e-03" rms="4.9498179554939270e-01" purity="4.3457388877868652e-01" nType="-99"/>
          <Node pos="r" depth="2" NCoef="0" IVar="-1" Cut="0.0000000000000000e+00" cType="1" res="-3.0525531619787216e-02" rms="4.3206769227981567e-01" purity="2.4837028980255127e-01" nType="-99"/>
        </Node>
      </Node>
    </BinaryTree>
    <BinaryTree type="DecisionTree" boostWeight="1.0000000000000000e+00" itree="2">
      <Node pos="s" depth="0" NCoef="0" IVar="25" Cut="4.5182205200195312e+02" cType="1" res="6.0302792116999626e-03" rms="4.9640473723411560e-01" purity="5.0257492065429688e-01" nType="0">
        <Node pos="l" depth="1" NCoef="0" IVar="16" Cut="3.4915996551513672e+01" cType="1" res="1.0244107991456985e-01" rms="4.8777836561203003e-01" purity="6.0666209459304810e-01" nType="0">
          <Node pos="l" depth="2" NCoef="0" IVar="-1" Cut="0.0000000000000000e+00" cType="1" res="1.0267063044011593e-02" rms="4.6689522266387939e-01" purity="6.7791813611984253e-01" nType="-99"/>
          <Node pos="r" depth="2" NCoef="0" IVar="-1" Cut="0.0000000000000000e+00" cType="1" res="2.9789898544549942e-03" rms="4.9829137325286865e-01" purity="5.4137253761291504e-01" nType="-99"/>
        </Node>
        <Node pos="r" depth="1" NCoef="0" IVar="16" Cut="4.0845890045166016e+01" cType="1" res="-1.3243876397609711e-01" rms="4.7548675537109375e-01" purity="3.5308080911636353e-01" nType="0">
          <Node pos="l" depth="2" NCoef="0" IVar="-1" Cut="0.0000000000000000e+00" cType="1" res="-4.3448321521282196e-03" rms="4.9524199962615967e-01" purity="4.4256949424743652e-01" nType="-99"/>
          <Node pos="r" depth="2" NCoef="0" IVar="-1" Cut="0.0000000000000000e+00" cType="1" res="-2.4390362203121185e-02" rms="4.4549632072448730e-01" purity="2.7484503388404846e-01" nType="-99"/>
        </Node>
      </Node>
    </BinaryTree>
    <BinaryTree type="DecisionTree" boostWeight="1.0000000000000000e+00" itree="3">
      <Node pos="s" depth="0" NCoef="0" IVar="16" Cut="3.7454490661621094e+01" cType="1" res="-3.9422567933797836e-03" rms="4.9475181102752686e-01" purity="4.9118593335151672e-01" nType="0">
        <Node pos="l" depth="1" NCoef="0" IVar="14" Cut="2.3930961608886719e+02" cType="1" res="1.0789134353399277e-01" rms="4.8500049114227295e-01" purity="6.1538165807723999e-01" nType="0">
          <Node pos="l" depth="2" NCoef="0" IVar="-1" Cut="0.0000000000000000e+00" cType="1" res="3.3550707157701254e-03" rms="4.9449506402015686e-01" purity="5.5739718675613403e-01" nType="-99"/>
          <Node pos="r" depth="2" NCoef="0" IVar="-1" Cut="0.0000000000000000e+00" cType="1" res="1.2600815854966640e-02" rms="4.4609367847442627e-01" purity="7.2178167104721069e-01" nType="-99"/>
        </Node>
        <Node pos="r" depth="1" NCoef="0" IVar="25" Cut="4.5480273437500000e+02" cType="1" res="-1.1609118431806564e-01" rms="4.7879096865653992e-01" purity="3.6664000153541565e-01" nType="0">
          <Node pos="l" depth="2" NCoef="0" IVar="-1" Cut="0.0000000000000000e+00" cType="1" res="-2.8473075944930315e-03" rms="4.9881964921951294e-01" purity="4.6634086966514587e-01" nType="-99"/>
          <Node pos="r" depth="2" NCoef="0" IVar="-1" Cut="0.0000000000000000e+00" cType="1" res="-2.1341407671570778e-02" rms="4.5114970207214355e-01" purity="2.8543168306350708e-01" nType="-99"/>
        </Node>
      </Node>
    </BinaryTree>
    <BinaryTree type="DecisionTree" boostWeight="1.0000000000000000e+00" itree="4">
      <Node pos="s" depth="0" NCoef="0" IVar="25" Cut="4.5224224853515625e+02" cType="1" res="1.6623942181468010e-02" rms="4.9287936091423035e-01" purity="5.1021963357925415e-01" nType="0">
        <Node pos="l" depth="1" NCoef="0" IVar="16" Cut="3.2225502014160156e+01" cType="1" res="1.0448152571916580e-01" rms="4.8534736037254333e-01" purity="6.1360371112823486e-01" nType="0">
          <Node pos="l" depth="2" NCoef="0" IVar="-1" Cut="0.0000000000000000e+00" cType="1" res="1.1990739963948727e-02" rms="4.4419279694557190e-01" purity="7.2905075550079346e-01" nType="-99"/>
          <Node pos="r" depth="2" NCoef="0" IVar="-1" Cut="0.0000000000000000e+00" cType="1" res="3.3762438688427210e-03" rms="4.9697285890579224e-01" purity="5.5089509487152100e-01" nType="-99"/>
        </Node>
        <Node pos="r" depth="1" NCoef="0" IVar="16" Cut="4.0845890045166016e+01" cType="1" res="-1.0307753086090088e-01" rms="4.7762274742126465e-01" purity="3.6936420202255249e-01" nType="0">
          <Node pos="l" depth="2" NCoef="0" IVar="-1" Cut="0.0000000000000000e+00" cType="1" res="-1.0106071131303906e-03" rms="4.9705475568771362e-01" purity="4.7834721207618713e-01" nType="-99"/>
          <Node pos="r" depth="2" NCoef="0" IVar="-1" Cut="0.0000000000000000e+00" cType="1" res="-2.2665688768029213e-02" rms="4.4328713417053223e-01" purity="2.6978841423988342e-01" nType="-99"/>
        </Node>
      </Node>
    </BinaryTree>
    <BinaryTree type="DecisionTree" boostWeight="1.0000000000000000e+00" itree="5">
      <Node pos="s" depth="0" NCoef="0" IVar="16" Cut="4.0366195678710938e+01" cType="1" res="3.0174279585480690e-02" rms="4.9159023165702820e-01" purity="5.2320414781570435e-01" nType="0">
        <Node pos="l" depth="1" NCoef="0" IVar="16" Cut="3.1766258239746094e+01" cType="1" res="9.8943389952182770e-02" rms="4.8438015580177307e-01" purity="6.0774421691894531e-01" nType="0">
          <Node pos="l" depth="2" NCoef="0" IVar="-1" Cut="0.0000000000000000e+00" cType="1" res="1.1660934425890446e-02" rms="4.4478031992912292e-01" purity="7.2551113367080688e-01" nType="-99"/>
          <Node pos="r" depth="2" NCoef="0" IVar="-1" Cut="0.0000000000000000e+00" cType="1" res="2.6074312627315521e-03" rms="4.9630457162857056e-01" purity="5.3628110885620117e-01" nType="-99"/>
        </Node>
        <Node pos="r" depth="1" NCoef="0" IVar="11" Cut="2.2857143878936768e+00" cType="1" res="-8.2618333399295807e-02" rms="4.8241445422172546e-01" purity="3.8454461097717285e-01" nType="0">
          <Node pos="l" depth="2" NCoef="0" IVar="-1" Cut="0.0000000000000000e+00" cType="1" res="-1.7179315909743309e-02" rms="4.5906352996826172e-01" purity="3.0872124433517456e-01" nType="-99"/>
          <Node pos="r" depth="2" NCoef="0" IVar="-1" Cut="0.0000000000000000e+00" cType="1" res="-2.5460543110966682e-03" rms="4.9231049418449402e-01" purity="4.4058135151863098e-01" nType="-99"/>
        </Node>
      </Node>
    </BinaryTree>
    <BinaryTree type="DecisionTree" boostWeight="1.0000000000000000e+00" itree="6">
      <Node pos="s" depth="0" NCoef="0" IVar="16" Cut="3.4689369201660156e+01" cType="1" res="3.9858296513557434e-03" rms="4.9187806248664856e-01" purity="4.9613603949546814e-01" nType="0">
        <Node pos="l" depth="1" NCoef="0" IVar="14" Cut="2.3550357055664062e+02" cType="1" res="1.2336921691894531e-01" rms="4.7658169269561768e-01" purity="6.4471048116683960e-01" nType="0">
          <Node pos="l" depth="2" NCoef="0" IVar="-1" Cut="0.0000000000000000e+00" cType="1" res="5.1027163863182068e-03" rms="4.8793876171112061e-01" purity="5.9831422567367554e-01" nType="-99"/>
          <Node pos="r" depth="2" NCoef="0" IVar="-1" Cut="0.0000000000000000e+00" cType="1" res="1.3064568862318993e-02" rms="4.2823079228401184e-01" purity="7.5420469045639038e-01" nType="-99"/>
        </Node>
        <Node pos="r" depth="1" NCoef="0" IVar="9" Cut="4.3333334922790527e+00" cType="1" res="-6.4155198633670807e-02" rms="4.8746418952941895e-01" purity="4.1133347153663635e-01" nType="0">
          <Node pos="l" depth="2" NCoef="0" IVar="-1" Cut="0.0000000000000000e+00" cType="1" res="1.0638633742928505e-02" rms="4.7147169709205627e-01" purity="6.5203988552093506e-01" nType="-99"/>
          <Node pos="r" depth="2" NCoef="0" IVar="-1" Cut="0.0000000000000000e+00" cType="1" res="-7.6199318282306194e-03" rms="4.8413175344467163e-01" purity="3.9337244629859924e-01" nType="-99"/>
        </Node>
      </Node>
    </BinaryTree>
    <BinaryTree type="DecisionTree" boostWeight="1.0000000000000000e+00" itree="7">
      <Node pos="s" depth="0" NCoef="0" IVar="16" Cut="3.2974456787109375e+01" cType="1" res="-1.0766326449811459e-02" rms="4.8997756838798523e-01" purity="4.8039823770523071e-01" nType="0">
        <Node pos="l" depth="1" NCoef="0" IVar="16" Cut="2.7853000640869141e+01" cType="1" res="1.3085833191871643e-01" rms="4.7199082374572754e-01" purity="6.5882307291030884e-01" nType="0">
          <Node pos="l" depth="2" NCoef="0" IVar="-1" Cut="0.0000000000000000e+00" cType="1" res="1.3781379908323288e-02" rms="4.0628790855407715e-01" purity="7.8998309373855591e-01" nType="-99"/>
          <Node pos="r" depth="2" NCoef="0" IVar="-1" Cut="0.0000000000000000e+00" cType="1" res="5.1334286108613014e-03" rms="4.8743686079978943e-01" purity="6.0287290811538696e-01" nType="-99"/>
        </Node>
        <Node pos="r" depth="1" NCoef="0" IVar="25" Cut="4.9928170776367188e+02" cType="1" res="-6.6893957555294037e-02" rms="4.8562940955162048e-01" purity="4.0968623757362366e-01" nType="0">
          <Node pos="l" depth="2" NCoef="0" IVar="-1" Cut="0.0000000000000000e+00" cType="1" res="-1.7109005711972713e-03" rms="4.9621948599815369e-01" purity="4.6859067678451538e-01" nType="-99"/>
          <Node pos="r" depth="2" NCoef="0" IVar="-1" Cut="0.0000000000000000e+00" cType="1" res="-2.1783987060189247e-02" rms="4.4014558196067810e-01" purity="2.6846182346343994e-01" nType="-99"/>
        </Node>
      </Node>
    </BinaryTree>
    <BinaryTree type="DecisionTree" boostWeight="1.0000000000000000e+00" itree="8">
      <Node pos="s" depth="0" NCoef="0" IVar="16" Cut="3.2974456787109375e+01" cType="1" res="1.4986209571361542e-02" rms="4.8932826519012451e-01" purity="5.0549077987670898e-01" nType="0">
        <Node pos="l" depth="1" NCoef="0" IVar="14" Cut="2.1326121520996094e+02" cType="1" res="1.4924299716949463e-01" rms="4.6390289068222046e-01" purity="6.8107861280441284e-01" nType="0">
          <Node pos="l" depth="2" NCoef="0" IVar="-1" Cut="0.0000000000000000e+00" cType="1" res="4.9295676872134209e-03" rms="4.8683008551597595e-01" purity="6.0609871149063110e-01" nType="-99"/>
          <Node pos="r" depth="2" NCoef="0" IVar="-1" Cut="0.0000000000000000e+00" cType="1" res="1.2630034238100052e-02" rms="4.2429897189140320e-01" purity="7.5994420051574707e-01" nType="-99"/>
        </Node>
        <Node pos="r" depth="1" NCoef="0" IVar="25" Cut="4.9878781127929688e+02" cType="1" res="-3.8527328521013260e-02" rms="4.8893174529075623e-01" purity="4.3550300598144531e-01" nType="0">
          <Node pos="l" depth="2" NCoef="0" IVar="-1" Cut="0.0000000000000000e+00" cType="1" res="5.6204927386716008e-04" rms="4.9716699123382568e-01" purity="4.9685397744178772e-01" nType="-99"/>
          <Node pos="r" depth="2" NCoef="0" IVar="-1" Cut="0.0000000000000000e+00" cType="1" res="-1.8692225217819214e-02" rms="4.4662812352180481e-01" purity="2.7925568819046021e-01" nType="-99"/>
        </Node>
      </Node>
    </BinaryTree>
    <BinaryTree type="DecisionTree" boostWeight="1.0000000000000000e+00" itree="9">
      <Node pos="s" depth="0" NCoef="0" IVar="16" Cut="3.9331363677978516e+01" cType="1" res="9.1223893687129021e-03" rms="4.8922485113143921e-01" purity="4.9891939759254456e-01" nType="0">
        <Node pos="l" depth="1" NCoef="0" IVar="16" Cut="2.8108280181884766e+01" cType="1" res="7.7597118914127350e-02" rms="4.8679026961326599e-01" purity="5.9264206886291504e-01" nType="0">
          <Node pos="l" depth="2" NCoef="0" IVar="-1" Cut="0.0000000000000000e+00" cType="1" res="1.2524547986686230e-02" rms="4.1862407326698303e-01" purity="7.7110511064529419e-01" nType="-99"/>
          <Node pos="r" depth="2" NCoef="0" IVar="-1" Cut="0.0000000000000000e+00" cType="1" res="3.4708478488028049e-03" rms="4.9350091814994812e-01" purity="5.5863344669342041e-01" nType="-99"/>
        </Node>
        <Node pos="r" depth="1" NCoef="0" IVar="11" Cut="2.2380952835083008e+00" cType="1" res="-8.6329333484172821e-02" rms="4.7645175457000732e-01" purity="3.6827275156974792e-01" nType="0">
          <Node pos="l" depth="2" NCoef="0" IVar="-1" Cut="0.0000000000000000e+00" cType="1" res="-2.0895507186651230e-02" rms="4.3980890512466431e-01" purity="2.7513366937637329e-01" nType="-99"/>
          <Node pos="r" depth="2" NCoef="0" IVar="-1" Cut="0.0000000000000000e+00" cType="1" res="-1.8558057490736246e-03" rms="4.9234974384307861e-01" purity="4.3823438882827759e-01" nType="-99"/>
        </Node>
      </Node>
    </BinaryTree>
    <BinaryTree type="DecisionTree" boostWeight="1.0000000000000000e+00" itree="10">
      <Node pos="s" depth="0" NCoef="0" IVar="25" Cut="4.5183660888671875e+02" cType="1" res="1.0513260960578918e-02" rms="4.8743468523025513e-01" purity="4.9919652938842773e-01" nType="0">
        <Node pos="l" depth="1" NCoef="0" IVar="9" Cut="4.2857141494750977e+00" cType="1" res="9.0908788144588470e-02" rms="4.8438611626625061e-01" purity="6.0692369937896729e-01" nType="0">
          <Node pos="l" depth="2" NCoef="0" IVar="-1" Cut="0.0000000000000000e+00" cType="1" res="1.3771981932222843e-02" rms="4.1322529315948486e-01" purity="7.8302586078643799e-01" nType="-99"/>
          <Node pos="r" depth="2" NCoef="0" IVar="-1" Cut="0.0000000000000000e+00" cType="1" res="4.7931233420968056e-03" rms="4.8875999450683594e-01" purity="5.8441430330276489e-01" nType="-99"/>
        </Node>
        <Node pos="r" depth="1" NCoef="0" IVar="16" Cut="3.0872535705566406e+01" cType="1" res="-9.9507771432399750e-02" rms="4.6978417038917542e-01" purity="3.5177221894264221e-01" nType="0">
          <Node pos="l" depth="2" NCoef="0" IVar="-1" Cut="0.0000000000000000e+00" cType="1" res="6.4032860100269318e-03" rms="4.8165309429168701e-01" purity="6.2972831726074219e-01" nType="-99"/>
          <Node pos="r" depth="2" NCoef="0" IVar="-1" Cut="0.0000000000000000e+00" cType="1" res="-1.2969534844160080e-02" rms="4.6392923593521118e-01" purity="3.2398474216461182e-01" nType="-99"/>
        </Node>
      </Node>
    </BinaryTree>
    <BinaryTree type="DecisionTree" boostWeight="1.0000000000000000e+00" itree="11">
      <Node pos="s" depth="0" NCoef="0" IVar="25" Cut="4.8070870971679688e+02" cType="1" res="1.2781001627445221e-02" rms="4.8770868778228760e-01" purity="4.9995499849319458e-01" nType="0">
        <Node pos="l" depth="1" NCoef="0" IVar="16" Cut="2.9637699127197266e+01" cType="1" res="6.0297094285488129e-02" rms="4.8850908875465393e-01" purity="5.7073003053665161e-01" nType="0">
          <Node pos="l" depth="2" NCoef="0" IVar="-1" Cut="0.0000000000000000e+00" cType="1" res="1.1609091423451900e-02" rms="4.2625334858894348e-01" purity="7.5929695367813110e-01" nType="-99"/>
          <Node pos="r" depth="2" NCoef="0" IVar="-1" Cut="0.0000000000000000e+00" cType="1" res="2.0231495145708323e-03" rms="4.9532148241996765e-01" purity="5.2867513895034790e-01" nType="-99"/>
        </Node>
        <Node pos="r" depth="1" NCoef="0" IVar="8" Cut="4.5103988051414490e-01" cType="1" res="-9.9397398531436920e-02" rms="4.6701258420944214e-01" purity="3.3286571502685547e-01" nType="0">
          <Node pos="l" depth="2" NCoef="0" IVar="-1" Cut="0.0000000000000000e+00" cType="1" res="-1.2418663827702403e-03" rms="4.8990303277969360e-01" purity="4.2036718130111694e-01" nType="-99"/>
          <Node pos="r" depth="2" NCoef="0" IVar="-1" Cut="0.0000000000000000e+00" cType="1" res="-1.8368266522884369e-02" rms="4.4439387321472168e-01" purity="2.7938878536224365e-01" nType="-99"/>
        </Node>
      </Node>
    </BinaryTree>
    <BinaryTree type="DecisionTree" boostWeight="1.0000000000000000e+00" itree="12">
      <Node pos="s" depth="0" NCoef="0" IVar="16" Cut="3.1824958801269531e+01" cType="1" res="2.5703776627779007e-03" rms="4.8677369952201843e-01" purity="4.8833951354026794e-01" nType="0">
        <Node pos="l" depth="1" NCoef="0" IVar="14" Cut="2.0812991333007812e+02" cType="1" res="1.4158782362937927e-01" rms="4.6018457412719727e-01" purity="6.8925827741622925e-01" nType="0">
          <Node pos="l" depth="2" NCoef="0" IVar="-1" Cut="0.0000000000000000e+00" cType="1" res="3.4624722320586443e-03" rms="4.8781934380531311e-01" purity="5.9831583499908447e-01" nType="-99"/>
          <Node pos="r" depth="2" NCoef="0" IVar="-1" Cut="0.0000000000000000e+00" cType="1" res="1.2549546547234058e-02" rms="4.1254046559333801e-01" purity="7.7841240167617798e-01" nType="-99"/>
        </Node>
        <Node pos="r" depth="1" NCoef="0" IVar="16" Cut="5.5633487701416016e+01" cType="1" res="-3.6383904516696930e-02" rms="4.8689964413642883e-01" purity="4.3203979730606079e-01" nType="0">
          <Node pos="l" depth="2" NCoef="0" IVar="-1" Cut="0.0000000000000000e+00" cType="1" res="-1.5455364482477307e-03" rms="4.9091041088104248e-01" purity="4.5373210310935974e-01" nType="-99"/>
          <Node pos="r" depth="2" NCoef="0" IVar="-1" Cut="0.0000000000000000e+00" cType="1" res="-3.6702752113342285e-02" rms="3.8575005531311035e-01" purity="1.8918727338314056e-01" nType="-99"/>
        </Node>
      </Node>
    </BinaryTree>
    <BinaryTree type="DecisionTree" boostWeight="1.0000000000000000e+00" itree="13">
      <Node pos="s" depth="0" NCoef="0" IVar="16" Cut="4.1934520721435547e+01" cType="1" res="2.0647410303354263e-02" rms="4.8589050769805908e-01" purity="5.0500595569610596e-01" nType="0">
        <Node pos="l" depth="1" NCoef="0" IVar="14" Cut="2.2618049621582031e+02" cType="1" res="7.0466369390487671e-02" rms="4.8549687862396240e-01" purity="5.8101212978363037e-01" nType="0">
          <Node pos="l" depth="2" NCoef="0" IVar="-1" Cut="0.0000000000000000e+00" cType="1" res="-4.7048163833096623e-04" rms="4.9103882908821106e-01" purity="5.2387106418609619e-01" nType="-99"/>
          <Node pos="r" depth="2" NCoef="0" IVar="-1" Cut="0.0000000000000000e+00" cType="1" res="8.0404197797179222e-03" rms="4.7468358278274536e-01" purity="6.1980444192886353e-01" nType="-99"/>
        </Node>
        <Node pos="r" depth="1" NCoef="0" IVar="11" Cut="3.1904761791229248e+00" cType="1" res="-7.5249992311000824e-02" rms="4.7207185626029968e-01" purity="3.5870033502578735e-01" nType="0">
          <Node pos="l" depth="2" NCoef="0" IVar="-1" Cut="0.0000000000000000e+00" cType="1" res="-1.4029714278876781e-02" rms="4.5605289936065674e-01" purity="3.0713543295860291e-01" nType="-99"/>
          <Node pos="r" depth="2" NCoef="0" IVar="-1" Cut="0.0000000000000000e+00" cType="1" res="7.2215101681649685e-03" rms="4.8774448037147522e-01" purity="5.4396057128906250e-01" nType="-99"/>
        </Node>
      </Node>
    </BinaryTree>
    <BinaryTree type="DecisionTree" boostWeight="1.0000000000000000e+00" itree="14">
      <Node pos="s" depth="0" NCoef="0" IVar="16" Cut="4.0826370239257812e+01" cType="1" res="1.7147444188594818e-02" rms="4.8391011357307434e-01" purity="5.0417542457580566e-01" nType="0">
        <Node pos="l" depth="1" NCoef="0" IVar="25" Cut="4.9466766357421875e+02" cType="1" res="7.6588876545429230e-02" rms="4.8329094052314758e-01" purity="5.9443169832229614e-01" nType="0">
          <Node pos="l" depth="2" NCoef="0" IVar="-1" Cut="0.0000000000000000e+00" cType="1" res="6.8698022514581680e-03" rms="4.7744953632354736e-01" purity="6.3299369812011719e-01" nType="-99"/>
          <Node pos="r" depth="2" NCoef="0" IVar="-1" Cut="0.0000000000000000e+00" cType="1" res="-8.8432179763913155e-03" rms="4.8146700859069824e-01" purity="3.7769815325737000e-01" nType="-99"/>
        </Node>
        <Node pos="r" depth="1" NCoef="0" IVar="0" Cut="1.9958236694335938e+01" cType="1" res="-8.8909983634948730e-02" rms="4.6656739711761475e-01" purity="3.4313702583312988e-01" nType="0">
          <Node pos="l" depth="2" NCoef="0" IVar="-1" Cut="0.0000000000000000e+00" cType="1" res="5.9115495532751083e-03" rms="4.9191266298294067e-01" purity="5.1771479845046997e-01" nType="-99"/>
          <Node pos="r" depth="2" NCoef="0" IVar="-1" Cut="0.0000000000000000e+00" cType="1" res="-1.2810010462999344e-02" rms="4.5697239041328430e-01" purity="3.1557205319404602e-01" nType="-99"/>
        </Node>
      </Node>
    </BinaryTree>
    <BinaryTree type="DecisionTree" boostWeight="1.0000000000000000e+00" itree="15">
      <Node pos="s" depth="0" NCoef="0" IVar="16" Cut="2.9637699127197266e+01" cType="1" res="1.5491890721023083e-02" rms="4.8579365015029907e-01" purity="4.9987655878067017e-01" nType="0">
        <Node pos="l" depth="1" NCoef="0" IVar="25" Cut="4.2309484863281250e+02" cType="1" res="1.9481070339679718e-01" rms="4.2516344785690308e-01" purity="7.5700807571411133e-01" nType="0">
          <Node pos="l" depth="2" NCoef="0" IVar="-1" Cut="0.0000000000000000e+00" cType="1" res="1.2590996921062469e-02" rms="3.9851158857345581e-01" purity="7.9992550611495972e-01" nType="-99"/>
          <Node pos="r" depth="2" NCoef="0" IVar="-1" Cut="0.0000000000000000e+00" cType="1" res="5.2455258555710316e-03" rms="4.7504317760467529e-01" purity="6.3493955135345459e-01" nType="-99"/>
        </Node>
        <Node pos="r" depth="1" NCoef="0" IVar="21" Cut="1.6731019592285156e+02" cType="1" res="-1.1492110788822174e-02" rms="4.8861014842987061e-01" purity="4.6118327975273132e-01" nType="0">
          <Node pos="l" depth="2" NCoef="0" IVar="-1" Cut="0.0000000000000000e+00" cType="1" res="3.6151101812720299e-04" rms="4.9262538552284241e-01" purity="4.8306149244308472e-01" nType="-99"/>
          <Node pos="r" depth="2" NCoef="0" IVar="-1" Cut="0.0000000000000000e+00" cType="1" res="-2.0217902958393097e-02" rms="4.2265933752059937e-01" purity="2.6020401716232300e-01" nType="-99"/>
        </Node>
      </Node>
    </BinaryTree>
    <BinaryTree type="DecisionTree" boostWeight="1.0000000000000000e+00" itree="16">
      <Node pos="s" depth="0" NCoef="0" IVar="25" Cut="4.5183090209960938e+02" cType="1" res="1.0843868367373943e-02" rms="4.8371776938438416e-01" purity="4.9757504463195801e-01" nType="0">
        <Node pos="l" depth="1" NCoef="0" IVar="16" Cut="2.7585329055786133e+01" cType="1" res="6.5688446164131165e-02" rms="4.8474261164665222e-01" purity="5.9089070558547974e-01" nType="0">
          <Node pos="l" depth="2" NCoef="0" IVar="-1" Cut="0.0000000000000000e+00" cType="1" res="1.2196552008390427e-02" rms="3.9920112490653992e-01" purity="7.9938358068466187e-01" nType="-99"/>
          <Node pos="r" depth="2" NCoef="0" IVar="-1" Cut="0.0000000000000000e+00" cType="1" res="3.0112389940768480e-03" rms="4.9159505963325500e-01" purity="5.6059706211090088e-01" nType="-99"/>
        </Node>
        <Node pos="r" depth="1" NCoef="0" IVar="19" Cut="1.3829518127441406e+02" cType="1" res="-6.0781609266996384e-02" rms="4.7289347648620605e-01" purity="3.7570738792419434e-01" nType="0">
          <Node pos="l" depth="2" NCoef="0" IVar="-1" Cut="0.0000000000000000e+00" cType="1" res="-2.4339158553630114e-03" rms="4.8055043816566467e-01" purity="4.1236230731010437e-01" nType="-99"/>
          <Node pos="r" depth="2" NCoef="0" IVar="-1" Cut="0.0000000000000000e+00" cType="1" res="-3.9074391126632690e-02" rms="3.8051167130470276e-01" purity="1.7994976043701172e-01" nType="-99"/>
        </Node>
      </Node>
    </BinaryTree>
    <BinaryTree type="DecisionTree" boostWeight="1.0000000000000000e+00" itree="17">
      <Node pos="s" depth="0" NCoef="0" IVar="16" Cut="4.0055011749267578e+01" cType="1" res="3.1486295163631439e-02" rms="4.8227417469024658e-01" purity="5.1758146286010742e-01" nType="0">
        <Node pos="l" depth="1" NCoef="0" IVar="14" Cut="2.2121440124511719e+02" cType="1" res="8.5181057453155518e-02" rms="4.8012360930442810e-01" purity="6.0790216922760010e-01" nType="0">
          <Node pos="l" depth="2" NCoef="0" IVar="-1" Cut="0.0000000000000000e+00" cType="1" res="4.0636275662109256e-04" rms="4.9086084961891174e-01" purity="5.4215866327285767e-01" nType="-99"/>
          <Node pos="r" depth="2" NCoef="0" IVar="-1" Cut="0.0000000000000000e+00" cType="1" res="8.7484689429402351e-03" rms="4.6513333916664124e-01" purity="6.5217429399490356e-01" nType="-99"/>
        </Node>
        <Node pos="r" depth="1" NCoef="0" IVar="2" Cut="-7.1814508438110352e+00" cType="1" res="-5.3708784282207489e-02" rms="4.7332817316055298e-01" purity="3.7427359819412231e-01" nType="0">
          <Node pos="l" depth="2" NCoef="0" IVar="-1" Cut="0.0000000000000000e+00" cType="1" res="-2.0789494737982750e-02" rms="4.2824101448059082e-01" purity="2.6087766885757446e-01" nType="-99"/>
          <Node pos="r" depth="2" NCoef="0" IVar="-1" Cut="0.0000000000000000e+00" cType="1" res="6.5713626099750400e-04" rms="4.8595929145812988e-01" purity="4.3730077147483826e-01" nType="-99"/>
        </Node>
      </Node>
    </BinaryTree>
    <BinaryTree type="DecisionTree" boostWeight="1.0000000000000000e+00" itree="18">
      <Node pos="s" depth="0" NCoef="0" IVar="25" Cut="4.8103411865234375e+02" cType="1" res="2.3605694994330406e-02" rms="4.8115313053131104e-01" purity="5.0905746221542358e-01" nType="0">
        <Node pos="l" depth="1" NCoef="0" IVar="16" Cut="3.2144546508789062e+01" cType="1" res="6.6926114261150360e-02" rms="4.8264801502227783e-01" purity="5.8416759967803955e-01" nType="0">
          <Node pos="l" depth="2" NCoef="0" IVar="-1" Cut="0.0000000000000000e+00" cType="1" res="9.6456576138734818e-03" rms="4.3825680017471313e-01" purity="7.3339664936065674e-01" nType="-99"/>
          <Node pos="r" depth="2" NCoef="0" IVar="-1" Cut="0.0000000000000000e+00" cType="1" res="1.5357739757746458e-03" rms="4.9521183967590332e-01" purity="5.1431661844253540e-01" nType="-99"/>
        </Node>
        <Node pos="r" depth="1" NCoef="0" IVar="11" Cut="2.2380952835083008e+00" cType="1" res="-7.5454130768775940e-02" rms="4.6271979808807373e-01" purity="3.3730465173721313e-01" nType="0">
          <Node pos="l" depth="2" NCoef="0" IVar="-1" Cut="0.0000000000000000e+00" cType="1" res="-1.3561259955167770e-02" rms="4.4647487998008728e-01" purity="3.0768513679504395e-01" nType="-99"/>
          <Node pos="r" depth="2" NCoef="0" IVar="-1" Cut="0.0000000000000000e+00" cType="1" res="6.7193599534220994e-05" rms="4.8033148050308228e-01" purity="3.8890916109085083e-01" nType="-99"/>
        </Node>
      </Node>
    </BinaryTree>
    <BinaryTree type="DecisionTree" boostWeight="1.0000000000000000e+00" itree="19">
      <Node pos="s" depth="0" NCoef="0" IVar="16" Cut="3.5046905517578125e+01" cType="1" res="1.6001308336853981e-02" rms="4.8065412044525146e-01" purity="5.0103288888931274e-01" nType="0">
        <Node pos="l" depth="1" NCoef="0" IVar="14" Cut="2.3168078613281250e+02" cType="1" res="1.0091024637222290e-01" rms="4.7034242749214172e-01" purity="6.4801698923110962e-01" nType="0">
          <Node pos="l" depth="2" NCoef="0" IVar="-1" Cut="0.0000000000000000e+00" cType="1" res="3.7255727220326662e-03" rms="4.8194381594657898e-01" purity="6.0379219055175781e-01" nType="-99"/>
          <Node pos="r" depth="2" NCoef="0" IVar="-1" Cut="0.0000000000000000e+00" cType="1" res="1.1186513118445873e-02" rms="4.3016058206558228e-01" purity="7.3955523967742920e-01" nType="-99"/>
        </Node>
        <Node pos="r" depth="1" NCoef="0" IVar="14" Cut="2.2992338562011719e+02" cType="1" res="-3.7204656749963760e-02" rms="4.7940042614936829e-01" purity="4.0892922878265381e-01" nType="0">
          <Node pos="l" depth="2" NCoef="0" IVar="-1" Cut="0.0000000000000000e+00" cType="1" res="-2.9281644150614738e-02" rms="4.3388956785202026e-01" purity="2.5793007016181946e-01" nType="-99"/>
          <Node pos="r" depth="2" NCoef="0" IVar="-1" Cut="0.0000000000000000e+00" cType="1" res="-1.3700537383556366e-03" rms="4.7922843694686890e-01" purity="4.2570972442626953e-01" nType="-99"/>
        </Node>
      </Node>
    </BinaryTree>
    <BinaryTree type="DecisionTree" boostWeight="1.0000000000000000e+00" itree="20">
      <Node pos="s" depth="0" NCoef="0" IVar="9" Cut="4.2857141494750977e+00" cType="1" res="1.6881054267287254e-02" rms="4.8243144154548645e-01" purity="5.0176173448562622e-01" nType="0">
        <Node pos="l" depth="1" NCoef="0" IVar="25" Cut="4.5255673217773438e+02" cType="1" res="2.1602347493171692e-01" rms="4.2812252044677734e-01" purity="7.3650085926055908e-01" nType="0">
          <Node pos="l" depth="2" NCoef="0" IVar="-1" Cut="0.0000000000000000e+00" cType="1" res="1.3854365795850754e-02" rms="3.9284950494766235e-01" purity="8.1001955270767212e-01" nType="-99"/>
          <Node pos="r" depth="2" NCoef="0" IVar="-1" Cut="0.0000000000000000e+00" cType="1" res="8.6126755923032761e-03" rms="4.7754943370819092e-01" purity="5.9092479944229126e-01" nType="-99"/>
        </Node>
        <Node pos="r" depth="1" NCoef="0" IVar="25" Cut="4.0997640991210938e+02" cType="1" res="-6.1310711316764355e-03" rms="4.8305508494377136e-01" purity="4.7463619709014893e-01" nType="0">
          <Node pos="l" depth="2" NCoef="0" IVar="-1" Cut="0.0000000000000000e+00" cType="1" res="4.6157641336321831e-03" rms="4.8163405060768127e-01" purity="6.0097968578338623e-01" nType="-99"/>
          <Node pos="r" depth="2" NCoef="0" IVar="-1" Cut="0.0000000000000000e+00" cType="1" res="-4.4877761974930763e-03" rms="4.7878724336624146e-01" purity="4.0339162945747375e-01" nType="-99"/>
        </Node>
      </Node>
    </BinaryTree>
    <BinaryTree type="DecisionTree" boostWeight="1.0000000000000000e+00" itree="21">
      <Node pos="s" depth="0" NCoef="0" IVar="9" Cut="4.3333334922790527e+00" cType="1" res="-1.5892548486590385e-02" rms="4.8025771975517273e-01" purity="4.6687203645706177e-01" nType="0">
        <Node pos="l" depth="1" NCoef="0" IVar="25" Cut="4.5265371704101562e+02" cType="1" res="1.7853271961212158e-01" rms="4.3903964757919312e-01" purity="7.0744055509567261e-01" nType="0">
          <Node pos="l" depth="2" NCoef="0" IVar="-1" Cut="0.0000000000000000e+00" cType="1" res="1.2900036759674549e-02" rms="3.9679658412933350e-01" purity="8.0150020122528076e-01" nType="-99"/>
          <Node pos="r" depth="2" NCoef="0" IVar="-1" Cut="0.0000000000000000e+00" cType="1" res="4.1196453385055065e-03" rms="4.9091890454292297e-01" purity="5.1682186126708984e-01" nType="-99"/>
        </Node>
        <Node pos="r" depth="1" NCoef="0" IVar="6" Cut="1.0222414398193359e+02" cType="1" res="-3.7830855697393417e-02" rms="4.7976702451705933e-01" purity="4.3972706794738770e-01" nType="0">
          <Node pos="l" depth="2" NCoef="0" IVar="-1" Cut="0.0000000000000000e+00" cType="1" res="-2.2390775848180056e-03" rms="4.8210382461547852e-01" purity="4.5369428396224976e-01" nType="-99"/>
          <Node pos="r" depth="2" NCoef="0" IVar="-1" Cut="0.0000000000000000e+00" cType="1" res="-4.1244283318519592e-02" rms="3.7215748429298401e-01" purity="1.7713497579097748e-01" nType="-99"/>
        </Node>
      </Node>
    </BinaryTree>
    <BinaryTree type="DecisionTree" boostWeight="1.0000000000000000e+00" itree="22">
      <Node pos="s" depth="0" NCoef="0" IVar="16" Cut="2.8167211532592773e+01" cType="1" res="5.8277738280594349e-03" rms="4.8043483495712280e-01" purity="4.8936018347740173e-01" nType="0">
        <Node pos="l" depth="1" NCoef="0" IVar="5" Cut="1.0626173019409180e+00" cType="1" res="1.7760892212390900e-01" rms="4.2387783527374268e-01" purity="7.5816309452056885e-01" nType="0">
          <Node pos="l" depth="2" NCoef="0" IVar="-1" Cut="0.0000000000000000e+00" cType="1" res="1.2497096322476864e-02" rms="3.8657653331756592e-01" purity="8.1365978717803955e-01" nType="-99"/>
          <Node pos="r" depth="2" NCoef="0" IVar="-1" Cut="0.0000000000000000e+00" cType="1" res="4.7611072659492493e-03" rms="4.6744376420974731e-01" purity="6.5650558471679688e-01" nType="-99"/>
        </Node>
        <Node pos="r" depth="1" NCoef="0" IVar="19" Cut="1.3270217895507812e+02" cType="1" res="-1.2329106219112873e-02" rms="4.8246750235557556e-01" purity="4.6094831824302673e-01" nType="0">
          <Node pos="l" depth="2" NCoef="0" IVar="-1" Cut="0.0000000000000000e+00" cType="1" res="6.0893775662407279e-04" rms="4.8563933372497559e-01" purity="4.8693692684173584e-01" nType="-99"/>
          <Node pos="r" depth="2" NCoef="0" IVar="-1" Cut="0.0000000000000000e+00" cType="1" res="-2.2243395447731018e-02" rms="4.2454284429550171e-01" purity="2.5459691882133484e-01" nType="-99"/>
        </Node>
      </Node>
    </BinaryTree>
    <BinaryTree type="DecisionTree" boostWeight="1.0000000000000000e+00" itree="23">
      <Node pos="s" depth="0" NCoef="0" IVar="16" Cut="3.0916473388671875e+01" cType="1" res="2.6070598512887955e-02" rms="4.7926178574562073e-01" purity="5.0913929939270020e-01" nType="0">
        <Node pos="l" depth="1" NCoef="0" IVar="14" Cut="1.9943411254882812e+02" cType="1" res="1.5648819506168365e-01" rms="4.3649998307228088e-01" purity="7.3109489679336548e-01" nType="0">
          <Node pos="l" depth="2" NCoef="0" IVar="-1" Cut="0.0000000000000000e+00" cType="1" res="3.1291297636926174e-03" rms="4.7693353891372681e-01" purity="6.2101119756698608e-01" nType="-99"/>
          <Node pos="r" depth="2" NCoef="0" IVar="-1" Cut="0.0000000000000000e+00" cType="1" res="1.2362327426671982e-02" rms="3.9079713821411133e-01" purity="8.0417555570602417e-01" nType="-99"/>
        </Node>
        <Node pos="r" depth="1" NCoef="0" IVar="14" Cut="2.3764073181152344e+02" cType="1" res="-4.2649335227906704e-03" rms="4.8365688323974609e-01" purity="4.5751178264617920e-01" nType="0">
          <Node pos="l" depth="2" NCoef="0" IVar="-1" Cut="0.0000000000000000e+00" cType="1" res="-1.0065583512187004e-02" rms="4.7663396596908569e-01" purity="3.9973747730255127e-01" nType="-99"/>
          <Node pos="r" depth="2" NCoef="0" IVar="-1" Cut="0.0000000000000000e+00" cType="1" res="2.4502547457814217e-03" rms="4.8103311657905579e-01" purity="4.7632446885108948e-01" nType="-99"/>
        </Node>
      </Node>
    </BinaryTree>
    <BinaryTree type="DecisionTree" boostWeight="1.0000000000000000e+00" itree="24">
      <Node pos="s" depth="0" NCoef="0" IVar="16" Cut="3.5021812438964844e+01" cType="1" res="9.5632243901491165e-03" rms="4.8007863759994507e-01" purity="4.9140310287475586e-01" nType="0">
        <Node pos="l" depth="1" NCoef="0" IVar="14" Cut="2.5068045043945312e+02" cType="1" res="8.3191514015197754e-02" rms="4.7247856855392456e-01" purity="6.3403642177581787e-01" nType="0">
          <Node pos="l" depth="2" NCoef="0" IVar="-1" Cut="0.0000000000000000e+00" cType="1" res="3.4907953813672066e-03" rms="4.7784110903739929e-01" purity="6.0489022731781006e-01" nType="-99"/>
          <Node pos="r" depth="2" NCoef="0" IVar="-1" Cut="0.0000000000000000e+00" cType="1" res="1.1948833242058754e-02" rms="4.2638686299324036e-01" purity="7.5244712829589844e-01" nType="-99"/>
        </Node>
        <Node pos="r" depth="1" NCoef="0" IVar="11" Cut="2.2857143878936768e+00" cType="1" res="-3.4938093274831772e-02" rms="4.7915986180305481e-01" purity="4.0519475936889648e-01" nType="0">
          <Node pos="l" depth="2" NCoef="0" IVar="-1" Cut="0.0000000000000000e+00" cType="1" res="-7.9789431765675545e-03" rms="4.6757912635803223e-01" purity="3.6049380898475647e-01" nType="-99"/>
          <Node pos="r" depth="2" NCoef="0" IVar="-1" Cut="0.0000000000000000e+00" cType="1" res="1.5429564518854022e-03" rms="4.8761516809463501e-01" purity="4.5955297350883484e-01" nType="-99"/>
        </Node>
      </Node>
    </BinaryTree>
    <BinaryTree type="DecisionTree" boostWeight="1.0000000000000000e+00" itree="25">
      <Node pos="s" depth="0" NCoef="0" IVar="16" Cut="3.3538906097412109e+01" cType="1" res="1.5468203462660313e-02" rms="4.7934582829475403e-01" purity="4.9859347939491272e-01" nType="0">
        <Node pos="l" depth="1" NCoef="0" IVar="14" Cut="2.1492597961425781e+02" cType="1" res="1.0170342028141022e-01" rms="4.6297866106033325e-01" purity="6.6453152894973755e-01" nType="0">
          <Node pos="l" depth="2" NCoef="0" IVar="-1" Cut="0.0000000000000000e+00" cType="1" res="1.4387823175638914e-03" rms="4.8520269989967346e-01" purity="5.8106458187103271e-01" nType="-99"/>
          <Node pos="r" depth="2" NCoef="0" IVar="-1" Cut="0.0000000000000000e+00" cType="1" res="1.0645656846463680e-02" rms="4.2204552888870239e-01" purity="7.5197410583496094e-01" nType="-99"/>
        </Node>
        <Node pos="r" depth="1" NCoef="0" IVar="16" Cut="5.6417964935302734e+01" cType="1" res="-2.2723011672496796e-02" rms="4.8150900006294250e-01" purity="4.2510405182838440e-01" nType="0">
          <Node pos="l" depth="2" NCoef="0" IVar="-1" Cut="0.0000000000000000e+00" cType="1" res="-5.4268434178084135e-04" rms="4.8616036772727966e-01" purity="4.4793921709060669e-01" nType="-99"/>
          <Node pos="r" depth="2" NCoef="0" IVar="-1" Cut="0.0000000000000000e+00" cType="1" res="-3.0155090615153313e-02" rms="3.9415952563285828e-01" purity="1.9251309335231781e-01" nType="-99"/>
        </Node>
      </Node>
    </BinaryTree>
    <BinaryTree type="DecisionTree" boostWeight="1.0000000000000000e+00" itree="26">
      <Node pos="s" depth="0" NCoef="0" IVar="16" Cut="3.9588066101074219e+01" cType="1" res="1.4938415959477425e-02" rms="4.7573947906494141e-01" purity="4.9979400634765625e-01" nType="0">
        <Node pos="l" depth="1" NCoef="0" IVar="14" Cut="2.4151473999023438e+02" cType="1" res="7.2598069906234741e-02" rms="4.7604292631149292e-01" purity="6.0383194684982300e-01" nType="0">
          <Node pos="l" depth="2" NCoef="0" IVar="-1" Cut="0.0000000000000000e+00" cType="1" res="1.7835372127592564e-03" rms="4.8074361681938171e-01" purity="5.6581503152847290e-01" nType="-99"/>
          <Node pos="r" depth="2" NCoef="0" IVar="-1" Cut="0.0000000000000000e+00" cType="1" res="9.3450928106904030e-03" rms="4.5779058337211609e-01" purity="6.6572558879852295e-01" nType="-99"/>
        </Node>
        <Node pos="r" depth="1" NCoef="0" IVar="11" Cut="2.2380952835083008e+00" cType="1" res="-7.1144312620162964e-02" rms="4.6208560466766357e-01" purity="3.4447112679481506e-01" nType="0">
          <Node pos="l" depth="2" NCoef="0" IVar="-1" Cut="0.0000000000000000e+00" cType="1" res="-1.9624125212430954e-02" rms="4.2262682318687439e-01" purity="2.5053569674491882e-01" nType="-99"/>
          <Node pos="r" depth="2" NCoef="0" IVar="-1" Cut="0.0000000000000000e+00" cType="1" res="-1.3979052891954780e-03" rms="4.8114395141601562e-01" purity="4.1284522414207458e-01" nType="-99"/>
        </Node>
      </Node>
    </BinaryTree>
    <BinaryTree type="DecisionTree" boostWeight="1.0000000000000000e+00" itree="27">
      <Node pos="s" depth="0" NCoef="0" IVar="25" Cut="4.5252581787109375e+02" cType="1" res="2.9016219079494476e-02" rms="4.7820761799812317e-01" purity="5.1164686679840088e-01" nType="0">
        <Node pos="l" depth="1" NCoef="0" IVar="16" Cut="3.1514614105224609e+01" cType="1" res="7.4966743588447571e-02" rms="4.7707080841064453e-01" purity="6.0471802949905396e-01" nType="0">
          <Node pos="l" depth="2" NCoef="0" IVar="-1" Cut="0.0000000000000000e+00" cType="1" res="9.5315212383866310e-03" rms="4.2806401848793030e-01" purity="7.5319814682006836e-01" nType="-99"/>
          <Node pos="r" depth="2" NCoef="0" IVar="-1" Cut="0.0000000000000000e+00" cType="1" res="2.7026911266148090e-03" rms="4.9103158712387085e-01" purity="5.4309374094009399e-01" nType="-99"/>
        </Node>
        <Node pos="r" depth="1" NCoef="0" IVar="21" Cut="1.9095852661132812e+02" cType="1" res="-3.4704450517892838e-02" rms="4.7244060039520264e-01" purity="3.8258296251296997e-01" nType="0">
          <Node pos="l" depth="2" NCoef="0" IVar="-1" Cut="0.0000000000000000e+00" cType="1" res="-1.4156294055283070e-03" rms="4.7998255491256714e-01" purity="4.0831887722015381e-01" nType="-99"/>
          <Node pos="r" depth="2" NCoef="0" IVar="-1" Cut="0.0000000000000000e+00" cType="1" res="-5.1968652755022049e-02" rms="3.1927824020385742e-01" purity="1.1328759789466858e-01" nType="-99"/>
        </Node>
      </Node>
    </BinaryTree>
    <BinaryTree type="DecisionTree" boostWeight="1.0000000000000000e+00" itree="28">
      <Node pos="s" depth="0" NCoef="0" IVar="16" Cut="5.3812526702880859e+01" cType="1" res="1.3320865109562874e-02" rms="4.7725036740303040e-01" purity="4.9397125840187073e-01" nType="0">
        <Node pos="l" depth="1" NCoef="0" IVar="25" Cut="4.2411279296875000e+02" cType="1" res="3.2200440764427185e-02" rms="4.8096477985382080e-01" purity="5.2248531579971313e-01" nType="0">
          <Node pos="l" depth="2" NCoef="0" IVar="-1" Cut="0.0000000000000000e+00" cType="1" res="5.3724879398941994e-03" rms="4.7639814019203186e-01" purity="6.1974567174911499e-01" nType="-99"/>
          <Node pos="r" depth="2" NCoef="0" IVar="-1" Cut="0.0000000000000000e+00" cType="1" res="-8.0995442112907767e-04" rms="4.8095655441284180e-01" purity="4.3968287110328674e-01" nType="-99"/>
        </Node>
        <Node pos="r" depth="1" NCoef="0" IVar="11" Cut="3.1428570747375488e+00" cType="1" res="-1.9389244914054871e-01" rms="3.7663567066192627e-01" purity="1.8101489543914795e-01" nType="0">
          <Node pos="l" depth="2" NCoef="0" IVar="-1" Cut="0.0000000000000000e+00" cType="1" res="-7.6094746589660645e-02" rms="2.4802599847316742e-01" purity="6.6442973911762238e-02" nType="-99"/>
          <Node pos="r" depth="2" NCoef="0" IVar="-1" Cut="0.0000000000000000e+00" cType="1" res="-9.1126793995499611e-03" rms="4.6286121010780334e-01" purity="3.1817910075187683e-01" nType="-99"/>
        </Node>
      </Node>
    </BinaryTree>
    <BinaryTree type="DecisionTree" boostWeight="1.0000000000000000e+00" itree="29">
      <Node pos="s" depth="0" NCoef="0" IVar="25" Cut="4.5252011108398438e+02" cType="1" res="2.3958357051014900e-02" rms="4.7658237814903259e-01" purity="5.0533479452133179e-01" nType="0">
        <Node pos="l" depth="1" NCoef="0" IVar="9" Cut="4.2857141494750977e+00" cType="1" res="7.1523047983646393e-02" rms="4.7771865129470825e-01" purity="6.0389709472656250e-01" nType="0">
          <Node pos="l" depth="2" NCoef="0" IVar="-1" Cut="0.0000000000000000e+00" cType="1" res="1.2553663924336433e-02" rms="3.9165243506431580e-01" purity="8.0686885118484497e-01" nType="-99"/>
          <Node pos="r" depth="2" NCoef="0" IVar="-1" Cut="0.0000000000000000e+00" cType="1" res="3.6291331052780151e-03" rms="4.8349636793136597e-01" purity="5.7919293642044067e-01" nType="-99"/>
        </Node>
        <Node pos="r" depth="1" NCoef="0" IVar="7" Cut="8.9950579404830933e-01" cType="1" res="-4.1149768978357315e-02" rms="4.6723720431327820e-01" purity="3.7041935324668884e-01" nType="0">
          <Node pos="l" depth="2" NCoef="0" IVar="-1" Cut="0.0000000000000000e+00" cType="1" res="-8.6769950576126575e-04" rms="4.7487431764602661e-01" purity="4.0255513787269592e-01" nType="-99"/>
          <Node pos="r" depth="2" NCoef="0" IVar="-1" Cut="0.0000000000000000e+00" cType="1" res="-3.1413368880748749e-02" rms="3.8418617844581604e-01" purity="2.0298010110855103e-01" nType="-99"/>
        </Node>
      </Node>
    </BinaryTree>
    <BinaryTree type="DecisionTree" boostWeight="1.0000000000000000e+00" itree="30">
      <Node pos="s" depth="0" NCoef="0" IVar="16" Cut="3.5252269744873047e+01" cType="1" res="1.3509138487279415e-02" rms="4.7631576657295227e-01" purity="4.9571141600608826e-01" nType="0">
        <Node pos="l" depth="1" NCoef="0" IVar="14" Cut="2.2747302246093750e+02" cType="1" res="7.4342519044876099e-02" rms="4.6883836388587952e-01" purity="6.3677364587783813e-01" nType="0">
          <Node pos="l" depth="2" NCoef="0" IVar="-1" Cut="0.0000000000000000e+00" cType="1" res="7.7144708484411240e-04" rms="4.8201295733451843e-01" purity="5.7335597276687622e-01" nType="-99"/>
          <Node pos="r" depth="2" NCoef="0" IVar="-1" Cut="0.0000000000000000e+00" cType="1" res="9.7989784553647041e-03" rms="4.3241193890571594e-01" purity="7.2945648431777954e-01" nType="-99"/>
        </Node>
        <Node pos="r" depth="1" NCoef="0" IVar="11" Cut="2.2380952835083008e+00" cType="1" res="-2.5642182677984238e-02" rms="4.7698065638542175e-01" purity="4.0492618083953857e-01" nType="0">
          <Node pos="l" depth="2" NCoef="0" IVar="-1" Cut="0.0000000000000000e+00" cType="1" res="-1.1464614421129227e-02" rms="4.5627826452255249e-01" purity="3.2329076528549194e-01" nType="-99"/>
          <Node pos="r" depth="2" NCoef="0" IVar="-1" Cut="0.0000000000000000e+00" cType="1" res="4.7410656698048115e-03" rms="4.8448997735977173e-01" purity="4.9349513649940491e-01" nType="-99"/>
        </Node>
      </Node>
    </BinaryTree>
    <BinaryTree type="DecisionTree" boostWeight="1.0000000000000000e+00" itree="31">
      <Node pos="s" depth="0" NCoef="0" IVar="16" Cut="2.9637699127197266e+01" cType="1" res="9.7633032128214836e-03" rms="4.7387224435806274e-01" purity="4.9152773618698120e-01" nType="0">
        <Node pos="l" depth="1" NCoef="0" IVar="14" Cut="1.8499829101562500e+02" cType="1" res="1.3920573890209198e-01" rms="4.2991286516189575e-01" purity="7.3897248506546021e-01" nType="0">
          <Node pos="l" depth="2" NCoef="0" IVar="-1" Cut="0.0000000000000000e+00" cType="1" res="-1.1114299995824695e-03" rms="4.8811790347099304e-01" purity="5.7466614246368408e-01" nType="-99"/>
          <Node pos="r" depth="2" NCoef="0" IVar="-1" Cut="0.0000000000000000e+00" cType="1" res="1.1059253476560116e-02" rms="3.8776749372482300e-01" purity="8.0417561531066895e-01" nType="-99"/>
        </Node>
        <Node pos="r" depth="1" NCoef="0" IVar="11" Cut="2.2857143878936768e+00" cType="1" res="-1.1047676205635071e-02" rms="4.7730022668838501e-01" purity="4.5174506306648254e-01" nType="0">
          <Node pos="l" depth="2" NCoef="0" IVar="-1" Cut="0.0000000000000000e+00" cType="1" res="-4.3360982090234756e-03" rms="4.7279071807861328e-01" purity="4.2484676837921143e-01" nType="-99"/>
          <Node pos="r" depth="2" NCoef="0" IVar="-1" Cut="0.0000000000000000e+00" cType="1" res="4.4192769564688206e-03" rms="4.7810980677604675e-01" purity="5.0002664327621460e-01" nType="-99"/>
        </Node>
      </Node>
    </BinaryTree>
    <BinaryTree type="DecisionTree" boostWeight="1.0000000000000000e+00" itree="32">
      <Node pos="s" depth="0" NCoef="0" IVar="9" Cut="4.2857141494750977e+00" cType="1" res="1.2299287132918835e-02" rms="4.7855836153030396e-01" purity="4.8991951346397400e-01" nType="0">
        <Node pos="l" depth="1" NCoef="0" IVar="2" Cut="-1.0306787490844727e+01" cType="1" res="1.7216360569000244e-01" rms="4.3265265226364136e-01" purity="7.1425950527191162e-01" nType="0">
          <Node pos="l" depth="2" NCoef="0" IVar="-1" Cut="0.0000000000000000e+00" cType="1" res="6.3078142702579498e-03" rms="4.5597684383392334e-01" purity="6.3532936573028564e-01" nType="-99"/>
          <Node pos="r" depth="2" NCoef="0" IVar="-1" Cut="0.0000000000000000e+00" cType="1" res="1.1983765289187431e-02" rms="4.1695427894592285e-01" purity="7.5010132789611816e-01" nType="-99"/>
        </Node>
        <Node pos="r" depth="1" NCoef="0" IVar="16" Cut="3.3568523406982422e+01" cType="1" res="-6.5348711796104908e-03" rms="4.8018807172775269e-01" purity="4.6348923444747925e-01" nType="0">
          <Node pos="l" depth="2" NCoef="0" IVar="-1" Cut="0.0000000000000000e+00" cType="1" res="4.3173949234187603e-03" rms="4.7524783015251160e-01" purity="6.3182544708251953e-01" nType="-99"/>
          <Node pos="r" depth="2" NCoef="0" IVar="-1" Cut="0.0000000000000000e+00" cType="1" res="-3.3891657367348671e-03" rms="4.7912415862083435e-01" purity="3.9591097831726074e-01" nType="-99"/>
        </Node>
      </Node>
    </BinaryTree>
    <BinaryTree type="DecisionTree" boostWeight="1.0000000000000000e+00" itree="33">
      <Node pos="s" depth="0" NCoef="0" IVar="9" Cut="4.2857141494750977e+00" cType="1" res="2.1427094936370850e-02" rms="4.7524112462997437e-01" purity="5.0289642810821533e-01" nType="0">
        <Node pos="l" depth="1" NCoef="0" IVar="25" Cut="4.5632510375976562e+02" cType="1" res="1.7749735713005066e-01" rms="4.2968466877937317e-01" purity="7.2578090429306030e-01" nType="0">
          <Node pos="l" depth="2" NCoef="0" IVar="-1" Cut="0.0000000000000000e+00" cType="1" res="1.2149103917181492e-02" rms="3.9420580863952637e-01" purity="8.0659317970275879e-01" nType="-99"/>
          <Node pos="r" depth="2" NCoef="0" IVar="-1" Cut="0.0000000000000000e+00" cType="1" res="5.3492793813347816e-03" rms="4.8641321063041687e-01" purity="5.3735125064849854e-01" nType="-99"/>
        </Node>
        <Node pos="r" depth="1" NCoef="0" IVar="25" Cut="4.5177679443359375e+02" cType="1" res="3.3961841836571693e-03" rms="4.7694623470306396e-01" purity="4.7714638710021973e-01" nType="0">
          <Node pos="l" depth="2" NCoef="0" IVar="-1" Cut="0.0000000000000000e+00" cType="1" res="2.7902410365641117e-03" rms="4.8276889324188232e-01" purity="5.7184815406799316e-01" nType="-99"/>
          <Node pos="r" depth="2" NCoef="0" IVar="-1" Cut="0.0000000000000000e+00" cType="1" res="-4.4660377316176891e-03" rms="4.6538642048835754e-01" purity="3.5616725683212280e-01" nType="-99"/>
        </Node>
      </Node>
    </BinaryTree>
    <BinaryTree type="DecisionTree" boostWeight="1.0000000000000000e+00" itree="34">
      <Node pos="s" depth="0" NCoef="0" IVar="16" Cut="3.3538906097412109e+01" cType="1" res="1.4089398086071014e-02" rms="4.7421813011169434e-01" purity="4.9726068973541260e-01" nType="0">
        <Node pos="l" depth="1" NCoef="0" IVar="14" Cut="2.1799098205566406e+02" cType="1" res="9.6804551780223846e-02" rms="4.5689934492111206e-01" purity="6.7552536725997925e-01" nType="0">
          <Node pos="l" depth="2" NCoef="0" IVar="-1" Cut="0.0000000000000000e+00" cType="1" res="2.3684490006417036e-03" rms="4.7796833515167236e-01" purity="6.0801309347152710e-01" nType="-99"/>
          <Node pos="r" depth="2" NCoef="0" IVar="-1" Cut="0.0000000000000000e+00" cType="1" res="1.0050488635897636e-02" rms="4.1564986109733582e-01" purity="7.6095348596572876e-01" nType="-99"/>
        </Node>
        <Node pos="r" depth="1" NCoef="0" IVar="11" Cut="2.2380952835083008e+00" cType="1" res="-2.5133285671472549e-02" rms="4.7722825407981873e-01" purity="4.1272935271263123e-01" nType="0">
          <Node pos="l" depth="2" NCoef="0" IVar="-1" Cut="0.0000000000000000e+00" cType="1" res="-9.0495971962809563e-03" rms="4.6376213431358337e-01" purity="3.4865173697471619e-01" nType="-99"/>
          <Node pos="r" depth="2" NCoef="0" IVar="-1" Cut="0.0000000000000000e+00" cType="1" res="4.1852523572742939e-03" rms="4.8272928595542908e-01" purity="4.9356433749198914e-01" nType="-99"/>
        </Node>
      </Node>
    </BinaryTree>
    <BinaryTree type="DecisionTree" boostWeight="1.0000000000000000e+00" itree="35">
      <Node pos="s" depth="0" NCoef="0" IVar="25" Cut="3.9472637939453125e+02" cType="1" res="2.2050015628337860e-02" rms="4.7318696975708008e-01" purity="5.0344908237457275e-01" nType="0">
        <Node pos="l" depth="1" NCoef="0" IVar="16" Cut="2.9622245788574219e+01" cType="1" res="9.9288448691368103e-02" rms="4.6255326271057129e-01" purity="6.5553659200668335e-01" nType="0">
          <Node pos="l" depth="2" NCoef="0" IVar="-1" Cut="0.0000000000000000e+00" cType="1" res="1.0121309198439121e-02" rms="3.9637416601181030e-01" purity="7.9854047298431396e-01" nType="-99"/>
          <Node pos="r" depth="2" NCoef="0" IVar="-1" Cut="0.0000000000000000e+00" cType="1" res="4.5735277235507965e-03" rms="4.8237740993499756e-01" purity="5.9933978319168091e-01" nType="-99"/>
        </Node>
        <Node pos="r" depth="1" NCoef="0" IVar="24" Cut="7.5111412048339844e+01" cType="1" res="-9.0569760650396347e-03" rms="4.7385969758033752e-01" purity="4.4219744205474854e-01" nType="0">
          <Node pos="l" depth="2" NCoef="0" IVar="-1" Cut="0.0000000000000000e+00" cType="1" res="-3.5299793817102909e-03" rms="4.6787697076797485e-01" purity="4.2037561535835266e-01" nType="-99"/>
          <Node pos="r" depth="2" NCoef="0" IVar="-1" Cut="0.0000000000000000e+00" cType="1" res="6.1166635714471340e-03" rms="4.8057436943054199e-01" purity="5.0520402193069458e-01" nType="-99"/>
        </Node>
      </Node>
    </BinaryTree>
    <BinaryTree type="DecisionTree" boostWeight="1.0000000000000000e+00" itree="36">
      <Node pos="s" depth="0" NCoef="0" IVar="16" Cut="3.1400348663330078e+01" cType="1" res="4.0780613198876381e-03" rms="4.7265017032623291e-01" purity="4.8766008019447327e-01" nType="0">
        <Node pos="l" depth="1" NCoef="0" IVar="14" Cut="1.9883644104003906e+02" cType="1" res="1.0045120865106583e-01" rms="4.4781374931335449e-01" purity="7.0084607601165771e-01" nType="0">
          <Node pos="l" depth="2" NCoef="0" IVar="-1" Cut="0.0000000000000000e+00" cType="1" res="3.3601652830839157e-04" rms="4.8166269063949585e-01" purity="5.9694880247116089e-01" nType="-99"/>
          <Node pos="r" depth="2" NCoef="0" IVar="-1" Cut="0.0000000000000000e+00" cType="1" res="9.4498153775930405e-03" rms="4.1176980733871460e-01" purity="7.6979523897171021e-01" nType="-99"/>
        </Node>
        <Node pos="r" depth="1" NCoef="0" IVar="6" Cut="9.4485687255859375e+01" cType="1" res="-2.3809671401977539e-02" rms="4.7597077488899231e-01" purity="4.2596992850303650e-01" nType="0">
          <Node pos="l" depth="2" NCoef="0" IVar="-1" Cut="0.0000000000000000e+00" cType="1" res="-7.0271600270643830e-04" rms="4.8035904765129089e-01" purity="4.4617998600006104e-01" nType="-99"/>
          <Node pos="r" depth="2" NCoef="0" IVar="-1" Cut="0.0000000000000000e+00" cType="1" res="-3.1917653977870941e-02" rms="3.7860804796218872e-01" purity="1.9479604065418243e-01" nType="-99"/>
        </Node>
      </Node>
    </BinaryTree>
    <BinaryTree type="DecisionTree" boostWeight="1.0000000000000000e+00" itree="37">
      <Node pos="s" depth="0" NCoef="0" IVar="11" Cut="2.2857143878936768e+00" cType="1" res="3.3777140080928802e-02" rms="4.7696304321289062e-01" purity="5.1448220014572144e-01" nType="0">
        <Node pos="l" depth="1" NCoef="0" IVar="16" Cut="3.4818752288818359e+01" cType="1" res="8.3745345473289490e-03" rms="4.7183695435523987e-01" purity="5.0435018539428711e-01" nType="0">
          <Node pos="l" depth="2" NCoef="0" IVar="-1" Cut="0.0000000000000000e+00" cType="1" res="4.2185876518487930e-03" rms="4.6900516748428345e-01" purity="6.3525682687759399e-01" nType="-99"/>
          <Node pos="r" depth="2" NCoef="0" IVar="-1" Cut="0.0000000000000000e+00" cType="1" res="-5.0360085442662239e-03" rms="4.6783673763275146e-01" purity="3.6742618680000305e-01" nType="-99"/>
        </Node>
        <Node pos="r" depth="1" NCoef="0" IVar="16" Cut="4.0877773284912109e+01" cType="1" res="8.9812368154525757e-02" rms="4.8338285088539124e-01" purity="5.3683221340179443e-01" nType="0">
          <Node pos="l" depth="2" NCoef="0" IVar="-1" Cut="0.0000000000000000e+00" cType="1" res="1.2063999660313129e-02" rms="4.3419146537780762e-01" purity="7.3523724079132080e-01" nType="-99"/>
          <Node pos="r" depth="2" NCoef="0" IVar="-1" Cut="0.0000000000000000e+00" cType="1" res="3.4122201614081860e-03" rms="4.9401515722274780e-01" purity="4.5297294855117798e-01" nType="-99"/>
        </Node>
      </Node>
    </BinaryTree>
    <BinaryTree type="DecisionTree" boostWeight="1.0000000000000000e+00" itree="38">
      <Node pos="s" depth="0" NCoef="0" IVar="9" Cut="4.2857141494750977e+00" cType="1" res="2.0686231553554535e-02" rms="4.7583660483360291e-01" purity="5.0076413154602051e-01" nType="0">
        <Node pos="l" depth="1" NCoef="0" IVar="3" Cut="1.6429543495178223e+00" cType="1" res="1.7147767543792725e-01" rms="4.3554648756980896e-01" purity="7.1698921918869019e-01" nType="0">
          <Node pos="l" depth="2" NCoef="0" IVar="-1" Cut="0.0000000000000000e+00" cType="1" res="6.9059445522725582e-03" rms="4.6698728203773499e-01" purity="6.4133542776107788e-01" nType="-99"/>
          <Node pos="r" depth="2" NCoef="0" IVar="-1" Cut="0.0000000000000000e+00" cType="1" res="1.3702722266316414e-02" rms="3.8251039385795593e-01" purity="8.0296599864959717e-01" nType="-99"/>
        </Node>
        <Node pos="r" depth="1" NCoef="0" IVar="13" Cut="1.4679083251953125e+02" cType="1" res="3.4666170831769705e-03" rms="4.7720077633857727e-01" purity="4.7607234120368958e-01" nType="0">
          <Node pos="l" depth="2" NCoef="0" IVar="-1" Cut="0.0000000000000000e+00" cType="1" res="9.1013760538771749e-04" rms="4.8016262054443359e-01" purity="4.8773747682571411e-01" nType="-99"/>
          <Node pos="r" depth="2" NCoef="0" IVar="-1" Cut="0.0000000000000000e+00" cType="1" res="-5.9224866330623627e-02" rms="2.5949230790138245e-01" purity="9.0044289827346802e-02" nType="-99"/>
        </Node>
      </Node>
    </BinaryTree>
    <BinaryTree type="DecisionTree" boostWeight="1.0000000000000000e+00" itree="39">
      <Node pos="s" depth="0" NCoef="0" IVar="16" Cut="3.4689369201660156e+01" cType="1" res="1.1215480975806713e-02" rms="4.7349503636360168e-01" purity="4.9322989583015442e-01" nType="0">
        <Node pos="l" depth="1" NCoef="0" IVar="14" Cut="1.9692683410644531e+02" cType="1" res="7.8662082552909851e-02" rms="4.6500051021575928e-01" purity="6.5461993217468262e-01" nType="0">
          <Node pos="l" depth="2" NCoef="0" IVar="-1" Cut="0.0000000000000000e+00" cType="1" res="-5.6428839452564716e-03" rms="4.9164310097694397e-01" purity="5.0497859716415405e-01" nType="-99"/>
          <Node pos="r" depth="2" NCoef="0" IVar="-1" Cut="0.0000000000000000e+00" cType="1" res="7.7515756711363792e-03" rms="4.4565773010253906e-01" purity="7.0251959562301636e-01" nType="-99"/>
        </Node>
        <Node pos="r" depth="1" NCoef="0" IVar="21" Cut="1.4098287963867188e+02" cType="1" res="-2.9709471389651299e-02" rms="4.7391951084136963e-01" purity="3.9530232548713684e-01" nType="0">
          <Node pos="l" depth="2" NCoef="0" IVar="-1" Cut="0.0000000000000000e+00" cType="1" res="-4.9537611630512401e-05" rms="4.8695197701454163e-01" purity="4.4308575987815857e-01" nType="-99"/>
          <Node pos="r" depth="2" NCoef="0" IVar="-1" Cut="0.0000000000000000e+00" cType="1" res="-1.9423792138695717e-02" rms="4.0892881155014038e-01" purity="2.2763215005397797e-01" nType="-99"/>
        </Node>
      </Node>
    </BinaryTree>
    <BinaryTree type="DecisionTree" boostWeight="1.0000000000000000e+00" itree="40">
      <Node pos="s" depth="0" NCoef="0" IVar="9" Cut="4.2857141494750977e+00" cType="1" res="2.4601288139820099e-02" rms="4.7161179780960083e-01" purity="5.0811946392059326e-01" nType="0">
        <Node pos="l" depth="1" NCoef="0" IVar="25" Cut="4.6582562255859375e+02" cType="1" res="1.6086876392364502e-01" rms="4.1869390010833740e-01" purity="7.2476428747177124e-01" nType="0">
          <Node pos="l" depth="2" NCoef="0" IVar="-1" Cut="0.0000000000000000e+00" cType="1" res="1.1328701861202717e-02" rms="3.8607847690582275e-01" purity="8.0805397033691406e-01" nType="-99"/>
          <Node pos="r" depth="2" NCoef="0" IVar="-1" Cut="0.0000000000000000e+00" cType="1" res="3.6686176899820566e-03" rms="4.7611618041992188e-01" purity="5.0398540496826172e-01" nType="-99"/>
        </Node>
        <Node pos="r" depth="1" NCoef="0" IVar="13" Cut="1.3625100708007812e+02" cType="1" res="9.2604774981737137e-03" rms="4.7475871443748474e-01" purity="4.8372992873191833e-01" nType="0">
          <Node pos="l" depth="2" NCoef="0" IVar="-1" Cut="0.0000000000000000e+00" cType="1" res="1.5149603132158518e-03" rms="4.7869744896888733e-01" purity="5.0106018781661987e-01" nType="-99"/>
          <Node pos="r" depth="2" NCoef="0" IVar="-1" Cut="0.0000000000000000e+00" cType="1" res="-3.1238175928592682e-02" rms="3.4981262683868408e-01" purity="1.6381803154945374e-01" nType="-99"/>
        </Node>
      </Node>
    </BinaryTree>
    <BinaryTree type="DecisionTree" boostWeight="1.0000000000000000e+00" itree="41">
      <Node pos="s" depth="0" NCoef="0" IVar="16" Cut="3.0916473388671875e+01" cType="1" res="2.0770663395524025e-02" rms="4.7130003571510315e-01" purity="5.0210988521575928e-01" nType="0">
        <Node pos="l" depth="1" NCoef="0" IVar="12" Cut="6.7884040832519531e+01" cType="1" res="1.1476472020149231e-01" rms="4.3740501999855042e-01" purity="7.2427916526794434e-01" nType="0">
          <Node pos="l" depth="2" NCoef="0" IVar="-1" Cut="0.0000000000000000e+00" cType="1" res="1.5075271949172020e-03" rms="4.7363540530204773e-01" purity="6.2355768680572510e-01" nType="-99"/>
          <Node pos="r" depth="2" NCoef="0" IVar="-1" Cut="0.0000000000000000e+00" cType="1" res="9.6325650811195374e-03" rms="4.0563961863517761e-01" purity="7.8222328424453735e-01" nType="-99"/>
        </Node>
        <Node pos="r" depth="1" NCoef="0" IVar="11" Cut="2.2380952835083008e+00" cType="1" res="-9.4220461323857307e-04" rms="4.7615796327590942e-01" purity="4.5078814029693604e-01" nType="0">
          <Node pos="l" depth="2" NCoef="0" IVar="-1" Cut="0.0000000000000000e+00" cType="1" res="-2.7948594652116299e-03" rms="4.7434929013252258e-01" purity="4.2297756671905518e-01" nType="-99"/>
          <Node pos="r" depth="2" NCoef="0" IVar="-1" Cut="0.0000000000000000e+00" cType="1" res="3.8737177383154631e-03" rms="4.7506129741668701e-01" purity="4.9719560146331787e-01" nType="-99"/>
        </Node>
      </Node>
    </BinaryTree>
    <BinaryTree type="DecisionTree" boostWeight="1.0000000000000000e+00" itree="42">
      <Node pos="s" depth="0" NCoef="0" IVar="25" Cut="4.9466766357421875e+02" cType="1" res="3.7022487958893180e-04" rms="4.7154906392097473e-01" purity="4.8263448476791382e-01" nType="0">
        <Node pos="l" depth="1" NCoef="0" IVar="14" Cut="2.2987561035156250e+02" cType="1" res="2.5392752140760422e-02" rms="4.7948870062828064e-01" purity="5.4598742723464966e-01" nType="0">
          <Node pos="l" depth="2" NCoef="0" IVar="-1" Cut="0.0000000000000000e+00" cType="1" res="-2.5881726760417223e-03" rms="4.7928023338317871e-01" purity="5.2756011486053467e-01" nType="-99"/>
          <Node pos="r" depth="2" NCoef="0" IVar="-1" Cut="0.0000000000000000e+00" cType="1" res="4.4025462120771408e-03" rms="4.7617480158805847e-01" purity="5.5691850185394287e-01" nType="-99"/>
        </Node>
        <Node pos="r" depth="1" NCoef="0" IVar="1" Cut="-4.2650657653808594e+01" cType="1" res="-7.6868854463100433e-02" rms="4.3720918893814087e-01" purity="2.8707769513130188e-01" nType="0">
          <Node pos="l" depth="2" NCoef="0" IVar="-1" Cut="0.0000000000000000e+00" cType="1" res="4.5289555564522743e-03" rms="4.7370603680610657e-01" purity="4.2380157113075256e-01" nType="-99"/>
          <Node pos="r" depth="2" NCoef="0" IVar="-1" Cut="0.0000000000000000e+00" cType="1" res="-1.5265955589711666e-02" rms="4.2079594731330872e-01" purity="2.5068438053131104e-01" nType="-99"/>
        </Node>
      </Node>
    </BinaryTree>
    <BinaryTree type="DecisionTree" boostWeight="1.0000000000000000e+00" itree="43">
      <Node pos="s" depth="0" NCoef="0" IVar="9" Cut="4.3333334922790527e+00" cType="1" res="1.2275173328816891e-02" rms="4.7229179739952087e-01" purity="4.9341663718223572e-01" nType="0">
        <Node pos="l" depth="1" NCoef="0" IVar="1" Cut="4.2403717041015625e+00" cType="1" res="1.5902845561504364e-01" rms="4.2809531092643738e-01" purity="7.2120344638824463e-01" nType="0">
          <Node pos="l" depth="2" NCoef="0" IVar="-1" Cut="0.0000000000000000e+00" cType="1" res="1.2443996034562588e-02" rms="3.8711374998092651e-01" purity="7.8283035755157471e-01" nType="-99"/>
          <Node pos="r" depth="2" NCoef="0" IVar="-1" Cut="0.0000000000000000e+00" cType="1" res="4.6350341290235519e-03" rms="4.7006192803382874e-01" purity="6.2621515989303589e-01" nType="-99"/>
        </Node>
        <Node pos="r" depth="1" NCoef="0" IVar="6" Cut="1.0277575683593750e+02" cType="1" res="-4.0305005386471748e-03" rms="4.7415423393249512e-01" purity="4.6810740232467651e-01" nType="0">
          <Node pos="l" depth="2" NCoef="0" IVar="-1" Cut="0.0000000000000000e+00" cType="1" res="3.5415220190770924e-04" rms="4.7675147652626038e-01" purity="4.8118057847023010e-01" nType="-99"/>
          <Node pos="r" depth="2" NCoef="0" IVar="-1" Cut="0.0000000000000000e+00" cType="1" res="-2.6087930426001549e-02" rms="3.8377884030342102e-01" purity="2.0874074101448059e-01" nType="-99"/>
        </Node>
      </Node>
    </BinaryTree>
    <BinaryTree type="DecisionTree" boostWeight="1.0000000000000000e+00" itree="44">
      <Node pos="s" depth="0" NCoef="0" IVar="9" Cut="4.3333334922790527e+00" cType="1" res="1.8964577466249466e-02" rms="4.7076359391212463e-01" purity="5.0022912025451660e-01" nType="0">
        <Node pos="l" depth="1" NCoef="0" IVar="20" Cut="1.7422447204589844e+02" cType="1" res="1.8220260739326477e-01" rms="4.1779798269271851e-01" purity="7.4302256107330322e-01" nType="0">
          <Node pos="l" depth="2" NCoef="0" IVar="-1" Cut="0.0000000000000000e+00" cType="1" res="6.8962667137384415e-03" rms="4.1596737504005432e-01" purity="7.0563673973083496e-01" nType="-99"/>
          <Node pos="r" depth="2" NCoef="0" IVar="-1" Cut="0.0000000000000000e+00" cType="1" res="1.4023596420884132e-02" rms="4.0892913937568665e-01" purity="7.7557545900344849e-01" nType="-99"/>
        </Node>
        <Node pos="r" depth="1" NCoef="0" IVar="11" Cut="2.2857143878936768e+00" cType="1" res="-1.3081183424219489e-03" rms="4.7301471233367920e-01" purity="4.7007632255554199e-01" nType="0">
          <Node pos="l" depth="2" NCoef="0" IVar="-1" Cut="0.0000000000000000e+00" cType="1" res="-3.7364426534622908e-03" rms="4.6740132570266724e-01" purity="4.4166988134384155e-01" nType="-99"/>
          <Node pos="r" depth="2" NCoef="0" IVar="-1" Cut="0.0000000000000000e+00" cType="1" res="5.6344475597143173e-03" rms="4.7414159774780273e-01" purity="5.2167648077011108e-01" nType="-99"/>
        </Node>
      </Node>
    </BinaryTree>
    <BinaryTree type="DecisionTree" boostWeight="1.0000000000000000e+00" itree="45">
      <Node pos="s" depth="0" NCoef="0" IVar="8" Cut="1.6446636915206909e+00" cType="1" res="8.5006868466734886e-03" rms="4.7206619381904602e-01" purity="4.8794528841972351e-01" nType="0">
        <Node pos="l" depth="1" NCoef="0" IVar="14" Cut="1.9725096130371094e+02" cType="1" res="4.1532415896654129e-02" rms="4.7690108418464661e-01" purity="5.2789449691772461e-01" nType="0">
          <Node pos="l" depth="2" NCoef="0" IVar="-1" Cut="0.0000000000000000e+00" cType="1" res="-1.2473312206566334e-02" rms="4.7450086474418640e-01" purity="4.2693588137626648e-01" nType="-99"/>
          <Node pos="r" depth="2" NCoef="0" IVar="-1" Cut="0.0000000000000000e+00" cType="1" res="4.6704239211976528e-03" rms="4.7296828031539917e-01" purity="5.3918528556823730e-01" nType="-99"/>
        </Node>
        <Node pos="r" depth="1" NCoef="0" IVar="16" Cut="4.2289756774902344e+01" cType="1" res="-3.5074338316917419e-02" rms="4.6201267838478088e-01" purity="4.3524473905563354e-01" nType="0">
          <Node pos="l" depth="2" NCoef="0" IVar="-1" Cut="0.0000000000000000e+00" cType="1" res="1.5722130774520338e-04" rms="4.7492036223411560e-01" purity="5.2063274383544922e-01" nType="-99"/>
          <Node pos="r" depth="2" NCoef="0" IVar="-1" Cut="0.0000000000000000e+00" cType="1" res="-1.3890311121940613e-02" rms="4.2659544944763184e-01" purity="2.6887577772140503e-01" nType="-99"/>
        </Node>
      </Node>
    </BinaryTree>
    <BinaryTree type="DecisionTree" boostWeight="1.0000000000000000e+00" itree="46">
      <Node pos="s" depth="0" NCoef="0" IVar="16" Cut="4.1934520721435547e+01" cType="1" res="3.4071337431669235e-02" rms="4.6796020865440369e-01" purity="5.1905107498168945e-01" nType="0">
        <Node pos="l" depth="1" NCoef="0" IVar="14" Cut="2.5119642639160156e+02" cType="1" res="6.7781880497932434e-02" rms="4.6833932399749756e-01" purity="5.9935837984085083e-01" nType="0">
          <Node pos="l" depth="2" NCoef="0" IVar="-1" Cut="0.0000000000000000e+00" cType="1" res="1.8670933786779642e-03" rms="4.6923577785491943e-01" purity="5.7624000310897827e-01" nType="-99"/>
          <Node pos="r" depth="2" NCoef="0" IVar="-1" Cut="0.0000000000000000e+00" cType="1" res="9.7063286229968071e-03" rms="4.5568248629570007e-01" purity="6.4437460899353027e-01" nType="-99"/>
        </Node>
        <Node pos="r" depth="1" NCoef="0" IVar="11" Cut="3.1904761791229248e+00" cType="1" res="-3.5922899842262268e-02" rms="4.5933753252029419e-01" purity="3.5230666399002075e-01" nType="0">
          <Node pos="l" depth="2" NCoef="0" IVar="-1" Cut="0.0000000000000000e+00" cType="1" res="-8.4980344399809837e-03" rms="4.4589290022850037e-01" purity="3.0679351091384888e-01" nType="-99"/>
          <Node pos="r" depth="2" NCoef="0" IVar="-1" Cut="0.0000000000000000e+00" cType="1" res="7.5779082253575325e-03" rms="4.8353233933448792e-01" purity="5.2190440893173218e-01" nType="-99"/>
        </Node>
      </Node>
    </BinaryTree>
    <BinaryTree type="DecisionTree" boostWeight="1.0000000000000000e+00" itree="47">
      <Node pos="s" depth="0" NCoef="0" IVar="25" Cut="4.5265823364257812e+02" cType="1" res="1.5167728066444397e-02" rms="4.7038367390632629e-01" purity="4.9856036901473999e-01" nType="0">
        <Node pos="l" depth="1" NCoef="0" IVar="9" Cut="4.2857141494750977e+00" cType="1" res="4.8950761556625366e-02" rms="4.7280040383338928e-01" purity="5.9796667098999023e-01" nType="0">
          <Node pos="l" depth="2" NCoef="0" IVar="-1" Cut="0.0000000000000000e+00" cType="1" res="9.8263239488005638e-03" rms="4.0371209383010864e-01" purity="7.8873032331466675e-01" nType="-99"/>
          <Node pos="r" depth="2" NCoef="0" IVar="-1" Cut="0.0000000000000000e+00" cType="1" res="2.4191332049667835e-03" rms="4.7844412922859192e-01" purity="5.7457602024078369e-01" nType="-99"/>
        </Node>
        <Node pos="r" depth="1" NCoef="0" IVar="11" Cut="2.2380952835083008e+00" cType="1" res="-3.2032884657382965e-02" rms="4.6287530660629272e-01" purity="3.5967290401458740e-01" nType="0">
          <Node pos="l" depth="2" NCoef="0" IVar="-1" Cut="0.0000000000000000e+00" cType="1" res="-8.9523969218134880e-03" rms="4.4871068000793457e-01" purity="3.2041865587234497e-01" nType="-99"/>
          <Node pos="r" depth="2" NCoef="0" IVar="-1" Cut="0.0000000000000000e+00" cType="1" res="4.3352092616260052e-03" rms="4.7610047459602356e-01" purity="4.2707735300064087e-01" nType="-99"/>
        </Node>
      </Node>
    </BinaryTree>
    <BinaryTree type="DecisionTree" boostWeight="1.0000000000000000e+00" itree="48">
      <Node pos="s" depth="0" NCoef="0" IVar="24" Cut="9.3473945617675781e+01" cType="1" res="2.4240281432867050e-02" rms="4.7240418195724487e-01" purity="5.0411629676818848e-01" nType="0">
        <Node pos="l" depth="1" NCoef="0" IVar="16" Cut="2.8299396514892578e+01" cType="1" res="9.7065661102533340e-03" rms="4.7080892324447632e-01" purity="4.9575617909431458e-01" nType="0">
          <Node pos="l" depth="2" NCoef="0" IVar="-1" Cut="0.0000000000000000e+00" cType="1" res="7.5575956143438816e-03" rms="4.2266830801963806e-01" purity="7.5229418277740479e-01" nType="-99"/>
          <Node pos="r" depth="2" NCoef="0" IVar="-1" Cut="0.0000000000000000e+00" cType="1" res="-3.4961424535140395e-04" rms="4.7430065274238586e-01" purity="4.6534153819084167e-01" nType="-99"/>
        </Node>
        <Node pos="r" depth="1" NCoef="0" IVar="7" Cut="-7.7859967947006226e-02" cType="1" res="1.1233937740325928e-01" rms="4.7248786687850952e-01" purity="5.5479282140731812e-01" nType="0">
          <Node pos="l" depth="2" NCoef="0" IVar="-1" Cut="0.0000000000000000e+00" cType="1" res="2.3038994986563921e-03" rms="4.7415775060653687e-01" purity="4.6313303709030151e-01" nType="-99"/>
          <Node pos="r" depth="2" NCoef="0" IVar="-1" Cut="0.0000000000000000e+00" cType="1" res="1.2047877535223961e-02" rms="4.6042177081108093e-01" purity="6.2553656101226807e-01" nType="-99"/>
        </Node>
      </Node>
    </BinaryTree>
    <BinaryTree type="DecisionTree" boostWeight="1.0000000000000000e+00" itree="49">
      <Node pos="s" depth="0" NCoef="0" IVar="16" Cut="2.8208141326904297e+01" cType="1" res="7.6626525260508060e-03" rms="4.7045254707336426e-01" purity="4.8994797468185425e-01" nType="0">
        <Node pos="l" depth="1" NCoef="0" IVar="25" Cut="3.9513668823242188e+02" cType="1" res="1.4177292585372925e-01" rms="4.1184997558593750e-01" purity="7.6837897300720215e-01" nType="0">
          <Node pos="l" depth="2" NCoef="0" IVar="-1" Cut="0.0000000000000000e+00" cType="1" res="1.0245819576084614e-02" rms="3.8338029384613037e-01" purity="8.1647449731826782e-01" nType="-99"/>
          <Node pos="r" depth="2" NCoef="0" IVar="-1" Cut="0.0000000000000000e+00" cType="1" res="5.2446639165282249e-03" rms="4.4330221414566040e-01" purity="6.9859945774078369e-01" nType="-99"/>
        </Node>
        <Node pos="r" depth="1" NCoef="0" IVar="14" Cut="2.2733439636230469e+02" cType="1" res="-6.7263389937579632e-03" rms="4.7406369447708130e-01" purity="4.6007448434829712e-01" nType="0">
          <Node pos="l" depth="2" NCoef="0" IVar="-1" Cut="0.0000000000000000e+00" cType="1" res="-6.6017936915159225e-03" rms="4.8071932792663574e-01" purity="4.5283877849578857e-01" nType="-99"/>
          <Node pos="r" depth="2" NCoef="0" IVar="-1" Cut="0.0000000000000000e+00" cType="1" res="1.4446020359173417e-03" rms="4.6945732831954956e-01" purity="4.6250000596046448e-01" nType="-99"/>
        </Node>
      </Node>
    </BinaryTree>
    <BinaryTree type="DecisionTree" boostWeight="1.0000000000000000e+00" itree="50">
      <Node pos="s" depth="0" NCoef="0" IVar="25" Cut="4.5183660888671875e+02" cType="1" res="2.3142855614423752e-02" rms="4.6716746687889099e-01" purity="5.0942897796630859e-01" nType="0">
        <Node pos="l" depth="1" NCoef="0" IVar="9" Cut="4.2380952835083008e+00" cType="1" res="6.4019806683063507e-02" rms="4.6779099106788635e-01" purity="6.1631530523300171e-01" nType="0">
          <Node pos="l" depth="2" NCoef="0" IVar="-1" Cut="0.0000000000000000e+00" cType="1" res="1.1264601722359657e-02" rms="3.7562626600265503e-01" purity="8.2308965921401978e-01" nType="-99"/>
          <Node pos="r" depth="2" NCoef="0" IVar="-1" Cut="0.0000000000000000e+00" cType="1" res="3.1573553569614887e-03" rms="4.7590348124504089e-01" purity="5.8803969621658325e-01" nType="-99"/>
        </Node>
        <Node pos="r" depth="1" NCoef="0" IVar="8" Cut="-1.6454445123672485e+00" cType="1" res="-3.3202204853296280e-02" rms="4.6039533615112305e-01" purity="3.6209610104560852e-01" nType="0">
          <Node pos="l" depth="2" NCoef="0" IVar="-1" Cut="0.0000000000000000e+00" cType="1" res="-2.1684901788830757e-02" rms="4.1365146636962891e-01" purity="2.3728589713573456e-01" nType="-99"/>
          <Node pos="r" depth="2" NCoef="0" IVar="-1" Cut="0.0000000000000000e+00" cType="1" res="-7.2961556725203991e-04" rms="4.6571210026741028e-01" purity="3.8876855373382568e-01" nType="-99"/>
        </Node>
      </Node>
    </BinaryTree>
    <BinaryTree type="DecisionTree" boostWeight="1.0000000000000000e+00" itree="51">
      <Node pos="s" depth="0" NCoef="0" IVar="16" Cut="2.9850717544555664e+01" cType="1" res="2.2805619984865189e-02" rms="4.6955093741416931e-01" purity="5.0825583934783936e-01" nType="0">
        <Node pos="l" depth="1" NCoef="0" IVar="16" Cut="2.7448423385620117e+01" cType="1" res="1.1409123241901398e-01" rms="4.2768222093582153e-01" purity="7.3710322380065918e-01" nType="0">
          <Node pos="l" depth="2" NCoef="0" IVar="-1" Cut="0.0000000000000000e+00" cType="1" res="9.6887974068522453e-03" rms="3.8302809000015259e-01" purity="8.0797904729843140e-01" nType="-99"/>
          <Node pos="r" depth="2" NCoef="0" IVar="-1" Cut="0.0000000000000000e+00" cType="1" res="3.6554073449224234e-03" rms="4.6348676085472107e-01" purity="6.6165137290954590e-01" nType="-99"/>
        </Node>
        <Node pos="r" depth="1" NCoef="0" IVar="14" Cut="2.2833601379394531e+02" cType="1" res="7.3658842593431473e-03" rms="4.7453561425209045e-01" purity="4.6954935789108276e-01" nType="0">
          <Node pos="l" depth="2" NCoef="0" IVar="-1" Cut="0.0000000000000000e+00" cType="1" res="-8.4671573713421822e-03" rms="4.7485178709030151e-01" purity="4.2500287294387817e-01" nType="-99"/>
          <Node pos="r" depth="2" NCoef="0" IVar="-1" Cut="0.0000000000000000e+00" cType="1" res="3.1114802695810795e-03" rms="4.7022685408592224e-01" purity="4.8270392417907715e-01" nType="-99"/>
        </Node>
      </Node>
    </BinaryTree>
    <BinaryTree type="DecisionTree" boostWeight="1.0000000000000000e+00" itree="52">
      <Node pos="s" depth="0" NCoef="0" IVar="25" Cut="5.0915243530273438e+02" cType="1" res="2.8780229389667511e-02" rms="4.6645635366439819e-01" purity="5.1594799757003784e-01" nType="0">
        <Node pos="l" depth="1" NCoef="0" IVar="16" Cut="3.1155466079711914e+01" cType="1" res="5.0256740301847458e-02" rms="4.7115367650985718e-01" purity="5.6979995965957642e-01" nType="0">
          <Node pos="l" depth="2" NCoef="0" IVar="-1" Cut="0.0000000000000000e+00" cType="1" res="7.1623669937252998e-03" rms="4.2800319194793701e-01" purity="7.3894906044006348e-01" nType="-99"/>
          <Node pos="r" depth="2" NCoef="0" IVar="-1" Cut="0.0000000000000000e+00" cType="1" res="2.1058158017694950e-03" rms="4.8291853070259094e-01" purity="5.1167750358581543e-01" nType="-99"/>
        </Node>
        <Node pos="r" depth="1" NCoef="0" IVar="24" Cut="8.8718269348144531e+01" cType="1" res="-6.1097297817468643e-02" rms="4.3490436673164368e-01" purity="2.9058185219764709e-01" nType="0">
          <Node pos="l" depth="2" NCoef="0" IVar="-1" Cut="0.0000000000000000e+00" cType="1" res="-1.4534611254930496e-02" rms="4.1305989027023315e-01" purity="2.4916340410709381e-01" nType="-99"/>
          <Node pos="r" depth="2" NCoef="0" IVar="-1" Cut="0.0000000000000000e+00" cType="1" res="7.8436238691210747e-03" rms="4.7389823198318481e-01" purity="4.2883056402206421e-01" nType="-99"/>
        </Node>
      </Node>
    </BinaryTree>
    <BinaryTree type="DecisionTree" boostWeight="1.0000000000000000e+00" itree="53">
      <Node pos="s" depth="0" NCoef="0" IVar="16" Cut="3.1581363677978516e+01" cType="1" res="2.1337214857339859e-02" rms="4.7012370824813843e-01" purity="5.0610125064849854e-01" nType="0">
        <Node pos="l" depth="1" NCoef="0" IVar="14" Cut="2.0418386840820312e+02" cType="1" res="9.3619480729103088e-02" rms="4.4141536951065063e-01" purity="7.1093517541885376e-01" nType="0">
          <Node pos="l" depth="2" NCoef="0" IVar="-1" Cut="0.0000000000000000e+00" cType="1" res="-6.4233655575662851e-04" rms="4.8361054062843323e-01" purity="5.8899796009063721e-01" nType="-99"/>
          <Node pos="r" depth="2" NCoef="0" IVar="-1" Cut="0.0000000000000000e+00" cType="1" res="9.5653170719742775e-03" rms="3.9312618970870972e-01" purity="7.9715973138809204e-01" nType="-99"/>
        </Node>
